~o
<STREAMINFO> 1 39
<VECSIZE> 39<NULLD><MFCC_D_A_0><DIAGC>
~h "a"
<BEGINHMM>
<NUMSTATES> 5
<STATE> 2
<MEAN> 39
 -2.222441e+000 -2.708222e+000 3.108068e+000 -2.464402e+000 -6.311431e+000 -1.736976e+000 -8.642424e+000 -4.641638e-001 9.865701e-001 5.417137e-001 5.261235e-001 -1.110524e+000 7.071455e+001 4.602423e-004 6.923532e-005 1.244897e-004 6.158851e-005 -4.891987e-004 7.387903e-006 -6.925895e-005 -3.708883e-004 -1.654896e-004 -5.566139e-004 1.930127e-004 -2.453134e-005 -2.923291e-003 7.611246e-006 -2.053565e-005 -4.995970e-005 -3.774019e-006 1.459992e-006 4.002525e-005 1.506312e-005 4.453514e-005 7.492490e-005 9.944455e-005 -3.990707e-005 -4.205932e-005 -1.946305e-005
<VARIANCE> 39
 4.903131e+001 3.175025e+001 4.229786e+001 3.588355e+001 5.316151e+001 4.197985e+001 5.202022e+001 4.888383e+001 4.431925e+001 3.482590e+001 2.981162e+001 2.252664e+001 7.380370e+001 2.708384e+000 1.940945e+000 2.224849e+000 2.220492e+000 3.333106e+000 2.839079e+000 3.365570e+000 2.718922e+000 2.869169e+000 2.577309e+000 1.999080e+000 1.691425e+000 1.796782e+000 4.211677e-001 2.997414e-001 3.533047e-001 3.832753e-001 5.842632e-001 4.934676e-001 6.021670e-001 4.947449e-001 5.121411e-001 4.832777e-001 3.780248e-001 3.224286e-001 2.559147e-001
<GCONST> 1.201926e+002
<STATE> 3
<MEAN> 39
 -2.222441e+000 -2.708222e+000 3.108068e+000 -2.464402e+000 -6.311431e+000 -1.736976e+000 -8.642424e+000 -4.641638e-001 9.865701e-001 5.417137e-001 5.261235e-001 -1.110524e+000 7.071455e+001 4.602423e-004 6.923532e-005 1.244897e-004 6.158851e-005 -4.891987e-004 7.387903e-006 -6.925895e-005 -3.708883e-004 -1.654896e-004 -5.566139e-004 1.930127e-004 -2.453134e-005 -2.923291e-003 7.611246e-006 -2.053565e-005 -4.995970e-005 -3.774019e-006 1.459992e-006 4.002525e-005 1.506312e-005 4.453514e-005 7.492490e-005 9.944455e-005 -3.990707e-005 -4.205932e-005 -1.946305e-005
<VARIANCE> 39
 4.903131e+001 3.175025e+001 4.229786e+001 3.588355e+001 5.316151e+001 4.197985e+001 5.202022e+001 4.888383e+001 4.431925e+001 3.482590e+001 2.981162e+001 2.252664e+001 7.380370e+001 2.708384e+000 1.940945e+000 2.224849e+000 2.220492e+000 3.333106e+000 2.839079e+000 3.365570e+000 2.718922e+000 2.869169e+000 2.577309e+000 1.999080e+000 1.691425e+000 1.796782e+000 4.211677e-001 2.997414e-001 3.533047e-001 3.832753e-001 5.842632e-001 4.934676e-001 6.021670e-001 4.947449e-001 5.121411e-001 4.832777e-001 3.780248e-001 3.224286e-001 2.559147e-001
<GCONST> 1.201926e+002
<STATE> 4
<MEAN> 39
 -2.222441e+000 -2.708222e+000 3.108068e+000 -2.464402e+000 -6.311431e+000 -1.736976e+000 -8.642424e+000 -4.641638e-001 9.865701e-001 5.417137e-001 5.261235e-001 -1.110524e+000 7.071455e+001 4.602423e-004 6.923532e-005 1.244897e-004 6.158851e-005 -4.891987e-004 7.387903e-006 -6.925895e-005 -3.708883e-004 -1.654896e-004 -5.566139e-004 1.930127e-004 -2.453134e-005 -2.923291e-003 7.611246e-006 -2.053565e-005 -4.995970e-005 -3.774019e-006 1.459992e-006 4.002525e-005 1.506312e-005 4.453514e-005 7.492490e-005 9.944455e-005 -3.990707e-005 -4.205932e-005 -1.946305e-005
<VARIANCE> 39
 4.903131e+001 3.175025e+001 4.229786e+001 3.588355e+001 5.316151e+001 4.197985e+001 5.202022e+001 4.888383e+001 4.431925e+001 3.482590e+001 2.981162e+001 2.252664e+001 7.380370e+001 2.708384e+000 1.940945e+000 2.224849e+000 2.220492e+000 3.333106e+000 2.839079e+000 3.365570e+000 2.718922e+000 2.869169e+000 2.577309e+000 1.999080e+000 1.691425e+000 1.796782e+000 4.211677e-001 2.997414e-001 3.533047e-001 3.832753e-001 5.842632e-001 4.934676e-001 6.021670e-001 4.947449e-001 5.121411e-001 4.832777e-001 3.780248e-001 3.224286e-001 2.559147e-001
<GCONST> 1.201926e+002
<TRANSP> 5
 0.000000e+000 1.000000e+000 0.000000e+000 0.000000e+000 0.000000e+000
 0.000000e+000 6.000000e-001 4.000000e-001 0.000000e+000 0.000000e+000
 0.000000e+000 0.000000e+000 6.000000e-001 4.000000e-001 0.000000e+000
 0.000000e+000 0.000000e+000 0.000000e+000 7.000000e-001 3.000000e-001
 0.000000e+000 0.000000e+000 0.000000e+000 0.000000e+000 0.000000e+000
<ENDHMM>
~h "b"
<BEGINHMM>
<NUMSTATES> 5
<STATE> 2
<MEAN> 39
 -2.222441e+000 -2.708222e+000 3.108068e+000 -2.464402e+000 -6.311431e+000 -1.736976e+000 -8.642424e+000 -4.641638e-001 9.865701e-001 5.417137e-001 5.261235e-001 -1.110524e+000 7.071455e+001 4.602423e-004 6.923532e-005 1.244897e-004 6.158851e-005 -4.891987e-004 7.387903e-006 -6.925895e-005 -3.708883e-004 -1.654896e-004 -5.566139e-004 1.930127e-004 -2.453134e-005 -2.923291e-003 7.611246e-006 -2.053565e-005 -4.995970e-005 -3.774019e-006 1.459992e-006 4.002525e-005 1.506312e-005 4.453514e-005 7.492490e-005 9.944455e-005 -3.990707e-005 -4.205932e-005 -1.946305e-005
<VARIANCE> 39
 4.903131e+001 3.175025e+001 4.229786e+001 3.588355e+001 5.316151e+001 4.197985e+001 5.202022e+001 4.888383e+001 4.431925e+001 3.482590e+001 2.981162e+001 2.252664e+001 7.380370e+001 2.708384e+000 1.940945e+000 2.224849e+000 2.220492e+000 3.333106e+000 2.839079e+000 3.365570e+000 2.718922e+000 2.869169e+000 2.577309e+000 1.999080e+000 1.691425e+000 1.796782e+000 4.211677e-001 2.997414e-001 3.533047e-001 3.832753e-001 5.842632e-001 4.934676e-001 6.021670e-001 4.947449e-001 5.121411e-001 4.832777e-001 3.780248e-001 3.224286e-001 2.559147e-001
<GCONST> 1.201926e+002
<STATE> 3
<MEAN> 39
 -2.222441e+000 -2.708222e+000 3.108068e+000 -2.464402e+000 -6.311431e+000 -1.736976e+000 -8.642424e+000 -4.641638e-001 9.865701e-001 5.417137e-001 5.261235e-001 -1.110524e+000 7.071455e+001 4.602423e-004 6.923532e-005 1.244897e-004 6.158851e-005 -4.891987e-004 7.387903e-006 -6.925895e-005 -3.708883e-004 -1.654896e-004 -5.566139e-004 1.930127e-004 -2.453134e-005 -2.923291e-003 7.611246e-006 -2.053565e-005 -4.995970e-005 -3.774019e-006 1.459992e-006 4.002525e-005 1.506312e-005 4.453514e-005 7.492490e-005 9.944455e-005 -3.990707e-005 -4.205932e-005 -1.946305e-005
<VARIANCE> 39
 4.903131e+001 3.175025e+001 4.229786e+001 3.588355e+001 5.316151e+001 4.197985e+001 5.202022e+001 4.888383e+001 4.431925e+001 3.482590e+001 2.981162e+001 2.252664e+001 7.380370e+001 2.708384e+000 1.940945e+000 2.224849e+000 2.220492e+000 3.333106e+000 2.839079e+000 3.365570e+000 2.718922e+000 2.869169e+000 2.577309e+000 1.999080e+000 1.691425e+000 1.796782e+000 4.211677e-001 2.997414e-001 3.533047e-001 3.832753e-001 5.842632e-001 4.934676e-001 6.021670e-001 4.947449e-001 5.121411e-001 4.832777e-001 3.780248e-001 3.224286e-001 2.559147e-001
<GCONST> 1.201926e+002
<STATE> 4
<MEAN> 39
 -2.222441e+000 -2.708222e+000 3.108068e+000 -2.464402e+000 -6.311431e+000 -1.736976e+000 -8.642424e+000 -4.641638e-001 9.865701e-001 5.417137e-001 5.261235e-001 -1.110524e+000 7.071455e+001 4.602423e-004 6.923532e-005 1.244897e-004 6.158851e-005 -4.891987e-004 7.387903e-006 -6.925895e-005 -3.708883e-004 -1.654896e-004 -5.566139e-004 1.930127e-004 -2.453134e-005 -2.923291e-003 7.611246e-006 -2.053565e-005 -4.995970e-005 -3.774019e-006 1.459992e-006 4.002525e-005 1.506312e-005 4.453514e-005 7.492490e-005 9.944455e-005 -3.990707e-005 -4.205932e-005 -1.946305e-005
<VARIANCE> 39
 4.903131e+001 3.175025e+001 4.229786e+001 3.588355e+001 5.316151e+001 4.197985e+001 5.202022e+001 4.888383e+001 4.431925e+001 3.482590e+001 2.981162e+001 2.252664e+001 7.380370e+001 2.708384e+000 1.940945e+000 2.224849e+000 2.220492e+000 3.333106e+000 2.839079e+000 3.365570e+000 2.718922e+000 2.869169e+000 2.577309e+000 1.999080e+000 1.691425e+000 1.796782e+000 4.211677e-001 2.997414e-001 3.533047e-001 3.832753e-001 5.842632e-001 4.934676e-001 6.021670e-001 4.947449e-001 5.121411e-001 4.832777e-001 3.780248e-001 3.224286e-001 2.559147e-001
<GCONST> 1.201926e+002
<TRANSP> 5
 0.000000e+000 1.000000e+000 0.000000e+000 0.000000e+000 0.000000e+000
 0.000000e+000 6.000000e-001 4.000000e-001 0.000000e+000 0.000000e+000
 0.000000e+000 0.000000e+000 6.000000e-001 4.000000e-001 0.000000e+000
 0.000000e+000 0.000000e+000 0.000000e+000 7.000000e-001 3.000000e-001
 0.000000e+000 0.000000e+000 0.000000e+000 0.000000e+000 0.000000e+000
<ENDHMM>
~h "c"
<BEGINHMM>
<NUMSTATES> 5
<STATE> 2
<MEAN> 39
 -2.222441e+000 -2.708222e+000 3.108068e+000 -2.464402e+000 -6.311431e+000 -1.736976e+000 -8.642424e+000 -4.641638e-001 9.865701e-001 5.417137e-001 5.261235e-001 -1.110524e+000 7.071455e+001 4.602423e-004 6.923532e-005 1.244897e-004 6.158851e-005 -4.891987e-004 7.387903e-006 -6.925895e-005 -3.708883e-004 -1.654896e-004 -5.566139e-004 1.930127e-004 -2.453134e-005 -2.923291e-003 7.611246e-006 -2.053565e-005 -4.995970e-005 -3.774019e-006 1.459992e-006 4.002525e-005 1.506312e-005 4.453514e-005 7.492490e-005 9.944455e-005 -3.990707e-005 -4.205932e-005 -1.946305e-005
<VARIANCE> 39
 4.903131e+001 3.175025e+001 4.229786e+001 3.588355e+001 5.316151e+001 4.197985e+001 5.202022e+001 4.888383e+001 4.431925e+001 3.482590e+001 2.981162e+001 2.252664e+001 7.380370e+001 2.708384e+000 1.940945e+000 2.224849e+000 2.220492e+000 3.333106e+000 2.839079e+000 3.365570e+000 2.718922e+000 2.869169e+000 2.577309e+000 1.999080e+000 1.691425e+000 1.796782e+000 4.211677e-001 2.997414e-001 3.533047e-001 3.832753e-001 5.842632e-001 4.934676e-001 6.021670e-001 4.947449e-001 5.121411e-001 4.832777e-001 3.780248e-001 3.224286e-001 2.559147e-001
<GCONST> 1.201926e+002
<STATE> 3
<MEAN> 39
 -2.222441e+000 -2.708222e+000 3.108068e+000 -2.464402e+000 -6.311431e+000 -1.736976e+000 -8.642424e+000 -4.641638e-001 9.865701e-001 5.417137e-001 5.261235e-001 -1.110524e+000 7.071455e+001 4.602423e-004 6.923532e-005 1.244897e-004 6.158851e-005 -4.891987e-004 7.387903e-006 -6.925895e-005 -3.708883e-004 -1.654896e-004 -5.566139e-004 1.930127e-004 -2.453134e-005 -2.923291e-003 7.611246e-006 -2.053565e-005 -4.995970e-005 -3.774019e-006 1.459992e-006 4.002525e-005 1.506312e-005 4.453514e-005 7.492490e-005 9.944455e-005 -3.990707e-005 -4.205932e-005 -1.946305e-005
<VARIANCE> 39
 4.903131e+001 3.175025e+001 4.229786e+001 3.588355e+001 5.316151e+001 4.197985e+001 5.202022e+001 4.888383e+001 4.431925e+001 3.482590e+001 2.981162e+001 2.252664e+001 7.380370e+001 2.708384e+000 1.940945e+000 2.224849e+000 2.220492e+000 3.333106e+000 2.839079e+000 3.365570e+000 2.718922e+000 2.869169e+000 2.577309e+000 1.999080e+000 1.691425e+000 1.796782e+000 4.211677e-001 2.997414e-001 3.533047e-001 3.832753e-001 5.842632e-001 4.934676e-001 6.021670e-001 4.947449e-001 5.121411e-001 4.832777e-001 3.780248e-001 3.224286e-001 2.559147e-001
<GCONST> 1.201926e+002
<STATE> 4
<MEAN> 39
 -2.222441e+000 -2.708222e+000 3.108068e+000 -2.464402e+000 -6.311431e+000 -1.736976e+000 -8.642424e+000 -4.641638e-001 9.865701e-001 5.417137e-001 5.261235e-001 -1.110524e+000 7.071455e+001 4.602423e-004 6.923532e-005 1.244897e-004 6.158851e-005 -4.891987e-004 7.387903e-006 -6.925895e-005 -3.708883e-004 -1.654896e-004 -5.566139e-004 1.930127e-004 -2.453134e-005 -2.923291e-003 7.611246e-006 -2.053565e-005 -4.995970e-005 -3.774019e-006 1.459992e-006 4.002525e-005 1.506312e-005 4.453514e-005 7.492490e-005 9.944455e-005 -3.990707e-005 -4.205932e-005 -1.946305e-005
<VARIANCE> 39
 4.903131e+001 3.175025e+001 4.229786e+001 3.588355e+001 5.316151e+001 4.197985e+001 5.202022e+001 4.888383e+001 4.431925e+001 3.482590e+001 2.981162e+001 2.252664e+001 7.380370e+001 2.708384e+000 1.940945e+000 2.224849e+000 2.220492e+000 3.333106e+000 2.839079e+000 3.365570e+000 2.718922e+000 2.869169e+000 2.577309e+000 1.999080e+000 1.691425e+000 1.796782e+000 4.211677e-001 2.997414e-001 3.533047e-001 3.832753e-001 5.842632e-001 4.934676e-001 6.021670e-001 4.947449e-001 5.121411e-001 4.832777e-001 3.780248e-001 3.224286e-001 2.559147e-001
<GCONST> 1.201926e+002
<TRANSP> 5
 0.000000e+000 1.000000e+000 0.000000e+000 0.000000e+000 0.000000e+000
 0.000000e+000 6.000000e-001 4.000000e-001 0.000000e+000 0.000000e+000
 0.000000e+000 0.000000e+000 6.000000e-001 4.000000e-001 0.000000e+000
 0.000000e+000 0.000000e+000 0.000000e+000 7.000000e-001 3.000000e-001
 0.000000e+000 0.000000e+000 0.000000e+000 0.000000e+000 0.000000e+000
<ENDHMM>
~h "d"
<BEGINHMM>
<NUMSTATES> 5
<STATE> 2
<MEAN> 39
 -2.222441e+000 -2.708222e+000 3.108068e+000 -2.464402e+000 -6.311431e+000 -1.736976e+000 -8.642424e+000 -4.641638e-001 9.865701e-001 5.417137e-001 5.261235e-001 -1.110524e+000 7.071455e+001 4.602423e-004 6.923532e-005 1.244897e-004 6.158851e-005 -4.891987e-004 7.387903e-006 -6.925895e-005 -3.708883e-004 -1.654896e-004 -5.566139e-004 1.930127e-004 -2.453134e-005 -2.923291e-003 7.611246e-006 -2.053565e-005 -4.995970e-005 -3.774019e-006 1.459992e-006 4.002525e-005 1.506312e-005 4.453514e-005 7.492490e-005 9.944455e-005 -3.990707e-005 -4.205932e-005 -1.946305e-005
<VARIANCE> 39
 4.903131e+001 3.175025e+001 4.229786e+001 3.588355e+001 5.316151e+001 4.197985e+001 5.202022e+001 4.888383e+001 4.431925e+001 3.482590e+001 2.981162e+001 2.252664e+001 7.380370e+001 2.708384e+000 1.940945e+000 2.224849e+000 2.220492e+000 3.333106e+000 2.839079e+000 3.365570e+000 2.718922e+000 2.869169e+000 2.577309e+000 1.999080e+000 1.691425e+000 1.796782e+000 4.211677e-001 2.997414e-001 3.533047e-001 3.832753e-001 5.842632e-001 4.934676e-001 6.021670e-001 4.947449e-001 5.121411e-001 4.832777e-001 3.780248e-001 3.224286e-001 2.559147e-001
<GCONST> 1.201926e+002
<STATE> 3
<MEAN> 39
 -2.222441e+000 -2.708222e+000 3.108068e+000 -2.464402e+000 -6.311431e+000 -1.736976e+000 -8.642424e+000 -4.641638e-001 9.865701e-001 5.417137e-001 5.261235e-001 -1.110524e+000 7.071455e+001 4.602423e-004 6.923532e-005 1.244897e-004 6.158851e-005 -4.891987e-004 7.387903e-006 -6.925895e-005 -3.708883e-004 -1.654896e-004 -5.566139e-004 1.930127e-004 -2.453134e-005 -2.923291e-003 7.611246e-006 -2.053565e-005 -4.995970e-005 -3.774019e-006 1.459992e-006 4.002525e-005 1.506312e-005 4.453514e-005 7.492490e-005 9.944455e-005 -3.990707e-005 -4.205932e-005 -1.946305e-005
<VARIANCE> 39
 4.903131e+001 3.175025e+001 4.229786e+001 3.588355e+001 5.316151e+001 4.197985e+001 5.202022e+001 4.888383e+001 4.431925e+001 3.482590e+001 2.981162e+001 2.252664e+001 7.380370e+001 2.708384e+000 1.940945e+000 2.224849e+000 2.220492e+000 3.333106e+000 2.839079e+000 3.365570e+000 2.718922e+000 2.869169e+000 2.577309e+000 1.999080e+000 1.691425e+000 1.796782e+000 4.211677e-001 2.997414e-001 3.533047e-001 3.832753e-001 5.842632e-001 4.934676e-001 6.021670e-001 4.947449e-001 5.121411e-001 4.832777e-001 3.780248e-001 3.224286e-001 2.559147e-001
<GCONST> 1.201926e+002
<STATE> 4
<MEAN> 39
 -2.222441e+000 -2.708222e+000 3.108068e+000 -2.464402e+000 -6.311431e+000 -1.736976e+000 -8.642424e+000 -4.641638e-001 9.865701e-001 5.417137e-001 5.261235e-001 -1.110524e+000 7.071455e+001 4.602423e-004 6.923532e-005 1.244897e-004 6.158851e-005 -4.891987e-004 7.387903e-006 -6.925895e-005 -3.708883e-004 -1.654896e-004 -5.566139e-004 1.930127e-004 -2.453134e-005 -2.923291e-003 7.611246e-006 -2.053565e-005 -4.995970e-005 -3.774019e-006 1.459992e-006 4.002525e-005 1.506312e-005 4.453514e-005 7.492490e-005 9.944455e-005 -3.990707e-005 -4.205932e-005 -1.946305e-005
<VARIANCE> 39
 4.903131e+001 3.175025e+001 4.229786e+001 3.588355e+001 5.316151e+001 4.197985e+001 5.202022e+001 4.888383e+001 4.431925e+001 3.482590e+001 2.981162e+001 2.252664e+001 7.380370e+001 2.708384e+000 1.940945e+000 2.224849e+000 2.220492e+000 3.333106e+000 2.839079e+000 3.365570e+000 2.718922e+000 2.869169e+000 2.577309e+000 1.999080e+000 1.691425e+000 1.796782e+000 4.211677e-001 2.997414e-001 3.533047e-001 3.832753e-001 5.842632e-001 4.934676e-001 6.021670e-001 4.947449e-001 5.121411e-001 4.832777e-001 3.780248e-001 3.224286e-001 2.559147e-001
<GCONST> 1.201926e+002
<TRANSP> 5
 0.000000e+000 1.000000e+000 0.000000e+000 0.000000e+000 0.000000e+000
 0.000000e+000 6.000000e-001 4.000000e-001 0.000000e+000 0.000000e+000
 0.000000e+000 0.000000e+000 6.000000e-001 4.000000e-001 0.000000e+000
 0.000000e+000 0.000000e+000 0.000000e+000 7.000000e-001 3.000000e-001
 0.000000e+000 0.000000e+000 0.000000e+000 0.000000e+000 0.000000e+000
<ENDHMM>
~h "e"
<BEGINHMM>
<NUMSTATES> 5
<STATE> 2
<MEAN> 39
 -2.222441e+000 -2.708222e+000 3.108068e+000 -2.464402e+000 -6.311431e+000 -1.736976e+000 -8.642424e+000 -4.641638e-001 9.865701e-001 5.417137e-001 5.261235e-001 -1.110524e+000 7.071455e+001 4.602423e-004 6.923532e-005 1.244897e-004 6.158851e-005 -4.891987e-004 7.387903e-006 -6.925895e-005 -3.708883e-004 -1.654896e-004 -5.566139e-004 1.930127e-004 -2.453134e-005 -2.923291e-003 7.611246e-006 -2.053565e-005 -4.995970e-005 -3.774019e-006 1.459992e-006 4.002525e-005 1.506312e-005 4.453514e-005 7.492490e-005 9.944455e-005 -3.990707e-005 -4.205932e-005 -1.946305e-005
<VARIANCE> 39
 4.903131e+001 3.175025e+001 4.229786e+001 3.588355e+001 5.316151e+001 4.197985e+001 5.202022e+001 4.888383e+001 4.431925e+001 3.482590e+001 2.981162e+001 2.252664e+001 7.380370e+001 2.708384e+000 1.940945e+000 2.224849e+000 2.220492e+000 3.333106e+000 2.839079e+000 3.365570e+000 2.718922e+000 2.869169e+000 2.577309e+000 1.999080e+000 1.691425e+000 1.796782e+000 4.211677e-001 2.997414e-001 3.533047e-001 3.832753e-001 5.842632e-001 4.934676e-001 6.021670e-001 4.947449e-001 5.121411e-001 4.832777e-001 3.780248e-001 3.224286e-001 2.559147e-001
<GCONST> 1.201926e+002
<STATE> 3
<MEAN> 39
 -2.222441e+000 -2.708222e+000 3.108068e+000 -2.464402e+000 -6.311431e+000 -1.736976e+000 -8.642424e+000 -4.641638e-001 9.865701e-001 5.417137e-001 5.261235e-001 -1.110524e+000 7.071455e+001 4.602423e-004 6.923532e-005 1.244897e-004 6.158851e-005 -4.891987e-004 7.387903e-006 -6.925895e-005 -3.708883e-004 -1.654896e-004 -5.566139e-004 1.930127e-004 -2.453134e-005 -2.923291e-003 7.611246e-006 -2.053565e-005 -4.995970e-005 -3.774019e-006 1.459992e-006 4.002525e-005 1.506312e-005 4.453514e-005 7.492490e-005 9.944455e-005 -3.990707e-005 -4.205932e-005 -1.946305e-005
<VARIANCE> 39
 4.903131e+001 3.175025e+001 4.229786e+001 3.588355e+001 5.316151e+001 4.197985e+001 5.202022e+001 4.888383e+001 4.431925e+001 3.482590e+001 2.981162e+001 2.252664e+001 7.380370e+001 2.708384e+000 1.940945e+000 2.224849e+000 2.220492e+000 3.333106e+000 2.839079e+000 3.365570e+000 2.718922e+000 2.869169e+000 2.577309e+000 1.999080e+000 1.691425e+000 1.796782e+000 4.211677e-001 2.997414e-001 3.533047e-001 3.832753e-001 5.842632e-001 4.934676e-001 6.021670e-001 4.947449e-001 5.121411e-001 4.832777e-001 3.780248e-001 3.224286e-001 2.559147e-001
<GCONST> 1.201926e+002
<STATE> 4
<MEAN> 39
 -2.222441e+000 -2.708222e+000 3.108068e+000 -2.464402e+000 -6.311431e+000 -1.736976e+000 -8.642424e+000 -4.641638e-001 9.865701e-001 5.417137e-001 5.261235e-001 -1.110524e+000 7.071455e+001 4.602423e-004 6.923532e-005 1.244897e-004 6.158851e-005 -4.891987e-004 7.387903e-006 -6.925895e-005 -3.708883e-004 -1.654896e-004 -5.566139e-004 1.930127e-004 -2.453134e-005 -2.923291e-003 7.611246e-006 -2.053565e-005 -4.995970e-005 -3.774019e-006 1.459992e-006 4.002525e-005 1.506312e-005 4.453514e-005 7.492490e-005 9.944455e-005 -3.990707e-005 -4.205932e-005 -1.946305e-005
<VARIANCE> 39
 4.903131e+001 3.175025e+001 4.229786e+001 3.588355e+001 5.316151e+001 4.197985e+001 5.202022e+001 4.888383e+001 4.431925e+001 3.482590e+001 2.981162e+001 2.252664e+001 7.380370e+001 2.708384e+000 1.940945e+000 2.224849e+000 2.220492e+000 3.333106e+000 2.839079e+000 3.365570e+000 2.718922e+000 2.869169e+000 2.577309e+000 1.999080e+000 1.691425e+000 1.796782e+000 4.211677e-001 2.997414e-001 3.533047e-001 3.832753e-001 5.842632e-001 4.934676e-001 6.021670e-001 4.947449e-001 5.121411e-001 4.832777e-001 3.780248e-001 3.224286e-001 2.559147e-001
<GCONST> 1.201926e+002
<TRANSP> 5
 0.000000e+000 1.000000e+000 0.000000e+000 0.000000e+000 0.000000e+000
 0.000000e+000 6.000000e-001 4.000000e-001 0.000000e+000 0.000000e+000
 0.000000e+000 0.000000e+000 6.000000e-001 4.000000e-001 0.000000e+000
 0.000000e+000 0.000000e+000 0.000000e+000 7.000000e-001 3.000000e-001
 0.000000e+000 0.000000e+000 0.000000e+000 0.000000e+000 0.000000e+000
<ENDHMM>
~h "f"
<BEGINHMM>
<NUMSTATES> 5
<STATE> 2
<MEAN> 39
 -2.222441e+000 -2.708222e+000 3.108068e+000 -2.464402e+000 -6.311431e+000 -1.736976e+000 -8.642424e+000 -4.641638e-001 9.865701e-001 5.417137e-001 5.261235e-001 -1.110524e+000 7.071455e+001 4.602423e-004 6.923532e-005 1.244897e-004 6.158851e-005 -4.891987e-004 7.387903e-006 -6.925895e-005 -3.708883e-004 -1.654896e-004 -5.566139e-004 1.930127e-004 -2.453134e-005 -2.923291e-003 7.611246e-006 -2.053565e-005 -4.995970e-005 -3.774019e-006 1.459992e-006 4.002525e-005 1.506312e-005 4.453514e-005 7.492490e-005 9.944455e-005 -3.990707e-005 -4.205932e-005 -1.946305e-005
<VARIANCE> 39
 4.903131e+001 3.175025e+001 4.229786e+001 3.588355e+001 5.316151e+001 4.197985e+001 5.202022e+001 4.888383e+001 4.431925e+001 3.482590e+001 2.981162e+001 2.252664e+001 7.380370e+001 2.708384e+000 1.940945e+000 2.224849e+000 2.220492e+000 3.333106e+000 2.839079e+000 3.365570e+000 2.718922e+000 2.869169e+000 2.577309e+000 1.999080e+000 1.691425e+000 1.796782e+000 4.211677e-001 2.997414e-001 3.533047e-001 3.832753e-001 5.842632e-001 4.934676e-001 6.021670e-001 4.947449e-001 5.121411e-001 4.832777e-001 3.780248e-001 3.224286e-001 2.559147e-001
<GCONST> 1.201926e+002
<STATE> 3
<MEAN> 39
 -2.222441e+000 -2.708222e+000 3.108068e+000 -2.464402e+000 -6.311431e+000 -1.736976e+000 -8.642424e+000 -4.641638e-001 9.865701e-001 5.417137e-001 5.261235e-001 -1.110524e+000 7.071455e+001 4.602423e-004 6.923532e-005 1.244897e-004 6.158851e-005 -4.891987e-004 7.387903e-006 -6.925895e-005 -3.708883e-004 -1.654896e-004 -5.566139e-004 1.930127e-004 -2.453134e-005 -2.923291e-003 7.611246e-006 -2.053565e-005 -4.995970e-005 -3.774019e-006 1.459992e-006 4.002525e-005 1.506312e-005 4.453514e-005 7.492490e-005 9.944455e-005 -3.990707e-005 -4.205932e-005 -1.946305e-005
<VARIANCE> 39
 4.903131e+001 3.175025e+001 4.229786e+001 3.588355e+001 5.316151e+001 4.197985e+001 5.202022e+001 4.888383e+001 4.431925e+001 3.482590e+001 2.981162e+001 2.252664e+001 7.380370e+001 2.708384e+000 1.940945e+000 2.224849e+000 2.220492e+000 3.333106e+000 2.839079e+000 3.365570e+000 2.718922e+000 2.869169e+000 2.577309e+000 1.999080e+000 1.691425e+000 1.796782e+000 4.211677e-001 2.997414e-001 3.533047e-001 3.832753e-001 5.842632e-001 4.934676e-001 6.021670e-001 4.947449e-001 5.121411e-001 4.832777e-001 3.780248e-001 3.224286e-001 2.559147e-001
<GCONST> 1.201926e+002
<STATE> 4
<MEAN> 39
 -2.222441e+000 -2.708222e+000 3.108068e+000 -2.464402e+000 -6.311431e+000 -1.736976e+000 -8.642424e+000 -4.641638e-001 9.865701e-001 5.417137e-001 5.261235e-001 -1.110524e+000 7.071455e+001 4.602423e-004 6.923532e-005 1.244897e-004 6.158851e-005 -4.891987e-004 7.387903e-006 -6.925895e-005 -3.708883e-004 -1.654896e-004 -5.566139e-004 1.930127e-004 -2.453134e-005 -2.923291e-003 7.611246e-006 -2.053565e-005 -4.995970e-005 -3.774019e-006 1.459992e-006 4.002525e-005 1.506312e-005 4.453514e-005 7.492490e-005 9.944455e-005 -3.990707e-005 -4.205932e-005 -1.946305e-005
<VARIANCE> 39
 4.903131e+001 3.175025e+001 4.229786e+001 3.588355e+001 5.316151e+001 4.197985e+001 5.202022e+001 4.888383e+001 4.431925e+001 3.482590e+001 2.981162e+001 2.252664e+001 7.380370e+001 2.708384e+000 1.940945e+000 2.224849e+000 2.220492e+000 3.333106e+000 2.839079e+000 3.365570e+000 2.718922e+000 2.869169e+000 2.577309e+000 1.999080e+000 1.691425e+000 1.796782e+000 4.211677e-001 2.997414e-001 3.533047e-001 3.832753e-001 5.842632e-001 4.934676e-001 6.021670e-001 4.947449e-001 5.121411e-001 4.832777e-001 3.780248e-001 3.224286e-001 2.559147e-001
<GCONST> 1.201926e+002
<TRANSP> 5
 0.000000e+000 1.000000e+000 0.000000e+000 0.000000e+000 0.000000e+000
 0.000000e+000 6.000000e-001 4.000000e-001 0.000000e+000 0.000000e+000
 0.000000e+000 0.000000e+000 6.000000e-001 4.000000e-001 0.000000e+000
 0.000000e+000 0.000000e+000 0.000000e+000 7.000000e-001 3.000000e-001
 0.000000e+000 0.000000e+000 0.000000e+000 0.000000e+000 0.000000e+000
<ENDHMM>
~h "g"
<BEGINHMM>
<NUMSTATES> 5
<STATE> 2
<MEAN> 39
 -2.222441e+000 -2.708222e+000 3.108068e+000 -2.464402e+000 -6.311431e+000 -1.736976e+000 -8.642424e+000 -4.641638e-001 9.865701e-001 5.417137e-001 5.261235e-001 -1.110524e+000 7.071455e+001 4.602423e-004 6.923532e-005 1.244897e-004 6.158851e-005 -4.891987e-004 7.387903e-006 -6.925895e-005 -3.708883e-004 -1.654896e-004 -5.566139e-004 1.930127e-004 -2.453134e-005 -2.923291e-003 7.611246e-006 -2.053565e-005 -4.995970e-005 -3.774019e-006 1.459992e-006 4.002525e-005 1.506312e-005 4.453514e-005 7.492490e-005 9.944455e-005 -3.990707e-005 -4.205932e-005 -1.946305e-005
<VARIANCE> 39
 4.903131e+001 3.175025e+001 4.229786e+001 3.588355e+001 5.316151e+001 4.197985e+001 5.202022e+001 4.888383e+001 4.431925e+001 3.482590e+001 2.981162e+001 2.252664e+001 7.380370e+001 2.708384e+000 1.940945e+000 2.224849e+000 2.220492e+000 3.333106e+000 2.839079e+000 3.365570e+000 2.718922e+000 2.869169e+000 2.577309e+000 1.999080e+000 1.691425e+000 1.796782e+000 4.211677e-001 2.997414e-001 3.533047e-001 3.832753e-001 5.842632e-001 4.934676e-001 6.021670e-001 4.947449e-001 5.121411e-001 4.832777e-001 3.780248e-001 3.224286e-001 2.559147e-001
<GCONST> 1.201926e+002
<STATE> 3
<MEAN> 39
 -2.222441e+000 -2.708222e+000 3.108068e+000 -2.464402e+000 -6.311431e+000 -1.736976e+000 -8.642424e+000 -4.641638e-001 9.865701e-001 5.417137e-001 5.261235e-001 -1.110524e+000 7.071455e+001 4.602423e-004 6.923532e-005 1.244897e-004 6.158851e-005 -4.891987e-004 7.387903e-006 -6.925895e-005 -3.708883e-004 -1.654896e-004 -5.566139e-004 1.930127e-004 -2.453134e-005 -2.923291e-003 7.611246e-006 -2.053565e-005 -4.995970e-005 -3.774019e-006 1.459992e-006 4.002525e-005 1.506312e-005 4.453514e-005 7.492490e-005 9.944455e-005 -3.990707e-005 -4.205932e-005 -1.946305e-005
<VARIANCE> 39
 4.903131e+001 3.175025e+001 4.229786e+001 3.588355e+001 5.316151e+001 4.197985e+001 5.202022e+001 4.888383e+001 4.431925e+001 3.482590e+001 2.981162e+001 2.252664e+001 7.380370e+001 2.708384e+000 1.940945e+000 2.224849e+000 2.220492e+000 3.333106e+000 2.839079e+000 3.365570e+000 2.718922e+000 2.869169e+000 2.577309e+000 1.999080e+000 1.691425e+000 1.796782e+000 4.211677e-001 2.997414e-001 3.533047e-001 3.832753e-001 5.842632e-001 4.934676e-001 6.021670e-001 4.947449e-001 5.121411e-001 4.832777e-001 3.780248e-001 3.224286e-001 2.559147e-001
<GCONST> 1.201926e+002
<STATE> 4
<MEAN> 39
 -2.222441e+000 -2.708222e+000 3.108068e+000 -2.464402e+000 -6.311431e+000 -1.736976e+000 -8.642424e+000 -4.641638e-001 9.865701e-001 5.417137e-001 5.261235e-001 -1.110524e+000 7.071455e+001 4.602423e-004 6.923532e-005 1.244897e-004 6.158851e-005 -4.891987e-004 7.387903e-006 -6.925895e-005 -3.708883e-004 -1.654896e-004 -5.566139e-004 1.930127e-004 -2.453134e-005 -2.923291e-003 7.611246e-006 -2.053565e-005 -4.995970e-005 -3.774019e-006 1.459992e-006 4.002525e-005 1.506312e-005 4.453514e-005 7.492490e-005 9.944455e-005 -3.990707e-005 -4.205932e-005 -1.946305e-005
<VARIANCE> 39
 4.903131e+001 3.175025e+001 4.229786e+001 3.588355e+001 5.316151e+001 4.197985e+001 5.202022e+001 4.888383e+001 4.431925e+001 3.482590e+001 2.981162e+001 2.252664e+001 7.380370e+001 2.708384e+000 1.940945e+000 2.224849e+000 2.220492e+000 3.333106e+000 2.839079e+000 3.365570e+000 2.718922e+000 2.869169e+000 2.577309e+000 1.999080e+000 1.691425e+000 1.796782e+000 4.211677e-001 2.997414e-001 3.533047e-001 3.832753e-001 5.842632e-001 4.934676e-001 6.021670e-001 4.947449e-001 5.121411e-001 4.832777e-001 3.780248e-001 3.224286e-001 2.559147e-001
<GCONST> 1.201926e+002
<TRANSP> 5
 0.000000e+000 1.000000e+000 0.000000e+000 0.000000e+000 0.000000e+000
 0.000000e+000 6.000000e-001 4.000000e-001 0.000000e+000 0.000000e+000
 0.000000e+000 0.000000e+000 6.000000e-001 4.000000e-001 0.000000e+000
 0.000000e+000 0.000000e+000 0.000000e+000 7.000000e-001 3.000000e-001
 0.000000e+000 0.000000e+000 0.000000e+000 0.000000e+000 0.000000e+000
<ENDHMM>
~h "h"
<BEGINHMM>
<NUMSTATES> 5
<STATE> 2
<MEAN> 39
 -2.222441e+000 -2.708222e+000 3.108068e+000 -2.464402e+000 -6.311431e+000 -1.736976e+000 -8.642424e+000 -4.641638e-001 9.865701e-001 5.417137e-001 5.261235e-001 -1.110524e+000 7.071455e+001 4.602423e-004 6.923532e-005 1.244897e-004 6.158851e-005 -4.891987e-004 7.387903e-006 -6.925895e-005 -3.708883e-004 -1.654896e-004 -5.566139e-004 1.930127e-004 -2.453134e-005 -2.923291e-003 7.611246e-006 -2.053565e-005 -4.995970e-005 -3.774019e-006 1.459992e-006 4.002525e-005 1.506312e-005 4.453514e-005 7.492490e-005 9.944455e-005 -3.990707e-005 -4.205932e-005 -1.946305e-005
<VARIANCE> 39
 4.903131e+001 3.175025e+001 4.229786e+001 3.588355e+001 5.316151e+001 4.197985e+001 5.202022e+001 4.888383e+001 4.431925e+001 3.482590e+001 2.981162e+001 2.252664e+001 7.380370e+001 2.708384e+000 1.940945e+000 2.224849e+000 2.220492e+000 3.333106e+000 2.839079e+000 3.365570e+000 2.718922e+000 2.869169e+000 2.577309e+000 1.999080e+000 1.691425e+000 1.796782e+000 4.211677e-001 2.997414e-001 3.533047e-001 3.832753e-001 5.842632e-001 4.934676e-001 6.021670e-001 4.947449e-001 5.121411e-001 4.832777e-001 3.780248e-001 3.224286e-001 2.559147e-001
<GCONST> 1.201926e+002
<STATE> 3
<MEAN> 39
 -2.222441e+000 -2.708222e+000 3.108068e+000 -2.464402e+000 -6.311431e+000 -1.736976e+000 -8.642424e+000 -4.641638e-001 9.865701e-001 5.417137e-001 5.261235e-001 -1.110524e+000 7.071455e+001 4.602423e-004 6.923532e-005 1.244897e-004 6.158851e-005 -4.891987e-004 7.387903e-006 -6.925895e-005 -3.708883e-004 -1.654896e-004 -5.566139e-004 1.930127e-004 -2.453134e-005 -2.923291e-003 7.611246e-006 -2.053565e-005 -4.995970e-005 -3.774019e-006 1.459992e-006 4.002525e-005 1.506312e-005 4.453514e-005 7.492490e-005 9.944455e-005 -3.990707e-005 -4.205932e-005 -1.946305e-005
<VARIANCE> 39
 4.903131e+001 3.175025e+001 4.229786e+001 3.588355e+001 5.316151e+001 4.197985e+001 5.202022e+001 4.888383e+001 4.431925e+001 3.482590e+001 2.981162e+001 2.252664e+001 7.380370e+001 2.708384e+000 1.940945e+000 2.224849e+000 2.220492e+000 3.333106e+000 2.839079e+000 3.365570e+000 2.718922e+000 2.869169e+000 2.577309e+000 1.999080e+000 1.691425e+000 1.796782e+000 4.211677e-001 2.997414e-001 3.533047e-001 3.832753e-001 5.842632e-001 4.934676e-001 6.021670e-001 4.947449e-001 5.121411e-001 4.832777e-001 3.780248e-001 3.224286e-001 2.559147e-001
<GCONST> 1.201926e+002
<STATE> 4
<MEAN> 39
 -2.222441e+000 -2.708222e+000 3.108068e+000 -2.464402e+000 -6.311431e+000 -1.736976e+000 -8.642424e+000 -4.641638e-001 9.865701e-001 5.417137e-001 5.261235e-001 -1.110524e+000 7.071455e+001 4.602423e-004 6.923532e-005 1.244897e-004 6.158851e-005 -4.891987e-004 7.387903e-006 -6.925895e-005 -3.708883e-004 -1.654896e-004 -5.566139e-004 1.930127e-004 -2.453134e-005 -2.923291e-003 7.611246e-006 -2.053565e-005 -4.995970e-005 -3.774019e-006 1.459992e-006 4.002525e-005 1.506312e-005 4.453514e-005 7.492490e-005 9.944455e-005 -3.990707e-005 -4.205932e-005 -1.946305e-005
<VARIANCE> 39
 4.903131e+001 3.175025e+001 4.229786e+001 3.588355e+001 5.316151e+001 4.197985e+001 5.202022e+001 4.888383e+001 4.431925e+001 3.482590e+001 2.981162e+001 2.252664e+001 7.380370e+001 2.708384e+000 1.940945e+000 2.224849e+000 2.220492e+000 3.333106e+000 2.839079e+000 3.365570e+000 2.718922e+000 2.869169e+000 2.577309e+000 1.999080e+000 1.691425e+000 1.796782e+000 4.211677e-001 2.997414e-001 3.533047e-001 3.832753e-001 5.842632e-001 4.934676e-001 6.021670e-001 4.947449e-001 5.121411e-001 4.832777e-001 3.780248e-001 3.224286e-001 2.559147e-001
<GCONST> 1.201926e+002
<TRANSP> 5
 0.000000e+000 1.000000e+000 0.000000e+000 0.000000e+000 0.000000e+000
 0.000000e+000 6.000000e-001 4.000000e-001 0.000000e+000 0.000000e+000
 0.000000e+000 0.000000e+000 6.000000e-001 4.000000e-001 0.000000e+000
 0.000000e+000 0.000000e+000 0.000000e+000 7.000000e-001 3.000000e-001
 0.000000e+000 0.000000e+000 0.000000e+000 0.000000e+000 0.000000e+000
<ENDHMM>
~h "i"
<BEGINHMM>
<NUMSTATES> 5
<STATE> 2
<MEAN> 39
 -2.222441e+000 -2.708222e+000 3.108068e+000 -2.464402e+000 -6.311431e+000 -1.736976e+000 -8.642424e+000 -4.641638e-001 9.865701e-001 5.417137e-001 5.261235e-001 -1.110524e+000 7.071455e+001 4.602423e-004 6.923532e-005 1.244897e-004 6.158851e-005 -4.891987e-004 7.387903e-006 -6.925895e-005 -3.708883e-004 -1.654896e-004 -5.566139e-004 1.930127e-004 -2.453134e-005 -2.923291e-003 7.611246e-006 -2.053565e-005 -4.995970e-005 -3.774019e-006 1.459992e-006 4.002525e-005 1.506312e-005 4.453514e-005 7.492490e-005 9.944455e-005 -3.990707e-005 -4.205932e-005 -1.946305e-005
<VARIANCE> 39
 4.903131e+001 3.175025e+001 4.229786e+001 3.588355e+001 5.316151e+001 4.197985e+001 5.202022e+001 4.888383e+001 4.431925e+001 3.482590e+001 2.981162e+001 2.252664e+001 7.380370e+001 2.708384e+000 1.940945e+000 2.224849e+000 2.220492e+000 3.333106e+000 2.839079e+000 3.365570e+000 2.718922e+000 2.869169e+000 2.577309e+000 1.999080e+000 1.691425e+000 1.796782e+000 4.211677e-001 2.997414e-001 3.533047e-001 3.832753e-001 5.842632e-001 4.934676e-001 6.021670e-001 4.947449e-001 5.121411e-001 4.832777e-001 3.780248e-001 3.224286e-001 2.559147e-001
<GCONST> 1.201926e+002
<STATE> 3
<MEAN> 39
 -2.222441e+000 -2.708222e+000 3.108068e+000 -2.464402e+000 -6.311431e+000 -1.736976e+000 -8.642424e+000 -4.641638e-001 9.865701e-001 5.417137e-001 5.261235e-001 -1.110524e+000 7.071455e+001 4.602423e-004 6.923532e-005 1.244897e-004 6.158851e-005 -4.891987e-004 7.387903e-006 -6.925895e-005 -3.708883e-004 -1.654896e-004 -5.566139e-004 1.930127e-004 -2.453134e-005 -2.923291e-003 7.611246e-006 -2.053565e-005 -4.995970e-005 -3.774019e-006 1.459992e-006 4.002525e-005 1.506312e-005 4.453514e-005 7.492490e-005 9.944455e-005 -3.990707e-005 -4.205932e-005 -1.946305e-005
<VARIANCE> 39
 4.903131e+001 3.175025e+001 4.229786e+001 3.588355e+001 5.316151e+001 4.197985e+001 5.202022e+001 4.888383e+001 4.431925e+001 3.482590e+001 2.981162e+001 2.252664e+001 7.380370e+001 2.708384e+000 1.940945e+000 2.224849e+000 2.220492e+000 3.333106e+000 2.839079e+000 3.365570e+000 2.718922e+000 2.869169e+000 2.577309e+000 1.999080e+000 1.691425e+000 1.796782e+000 4.211677e-001 2.997414e-001 3.533047e-001 3.832753e-001 5.842632e-001 4.934676e-001 6.021670e-001 4.947449e-001 5.121411e-001 4.832777e-001 3.780248e-001 3.224286e-001 2.559147e-001
<GCONST> 1.201926e+002
<STATE> 4
<MEAN> 39
 -2.222441e+000 -2.708222e+000 3.108068e+000 -2.464402e+000 -6.311431e+000 -1.736976e+000 -8.642424e+000 -4.641638e-001 9.865701e-001 5.417137e-001 5.261235e-001 -1.110524e+000 7.071455e+001 4.602423e-004 6.923532e-005 1.244897e-004 6.158851e-005 -4.891987e-004 7.387903e-006 -6.925895e-005 -3.708883e-004 -1.654896e-004 -5.566139e-004 1.930127e-004 -2.453134e-005 -2.923291e-003 7.611246e-006 -2.053565e-005 -4.995970e-005 -3.774019e-006 1.459992e-006 4.002525e-005 1.506312e-005 4.453514e-005 7.492490e-005 9.944455e-005 -3.990707e-005 -4.205932e-005 -1.946305e-005
<VARIANCE> 39
 4.903131e+001 3.175025e+001 4.229786e+001 3.588355e+001 5.316151e+001 4.197985e+001 5.202022e+001 4.888383e+001 4.431925e+001 3.482590e+001 2.981162e+001 2.252664e+001 7.380370e+001 2.708384e+000 1.940945e+000 2.224849e+000 2.220492e+000 3.333106e+000 2.839079e+000 3.365570e+000 2.718922e+000 2.869169e+000 2.577309e+000 1.999080e+000 1.691425e+000 1.796782e+000 4.211677e-001 2.997414e-001 3.533047e-001 3.832753e-001 5.842632e-001 4.934676e-001 6.021670e-001 4.947449e-001 5.121411e-001 4.832777e-001 3.780248e-001 3.224286e-001 2.559147e-001
<GCONST> 1.201926e+002
<TRANSP> 5
 0.000000e+000 1.000000e+000 0.000000e+000 0.000000e+000 0.000000e+000
 0.000000e+000 6.000000e-001 4.000000e-001 0.000000e+000 0.000000e+000
 0.000000e+000 0.000000e+000 6.000000e-001 4.000000e-001 0.000000e+000
 0.000000e+000 0.000000e+000 0.000000e+000 7.000000e-001 3.000000e-001
 0.000000e+000 0.000000e+000 0.000000e+000 0.000000e+000 0.000000e+000
<ENDHMM>
~h "j"
<BEGINHMM>
<NUMSTATES> 5
<STATE> 2
<MEAN> 39
 -2.222441e+000 -2.708222e+000 3.108068e+000 -2.464402e+000 -6.311431e+000 -1.736976e+000 -8.642424e+000 -4.641638e-001 9.865701e-001 5.417137e-001 5.261235e-001 -1.110524e+000 7.071455e+001 4.602423e-004 6.923532e-005 1.244897e-004 6.158851e-005 -4.891987e-004 7.387903e-006 -6.925895e-005 -3.708883e-004 -1.654896e-004 -5.566139e-004 1.930127e-004 -2.453134e-005 -2.923291e-003 7.611246e-006 -2.053565e-005 -4.995970e-005 -3.774019e-006 1.459992e-006 4.002525e-005 1.506312e-005 4.453514e-005 7.492490e-005 9.944455e-005 -3.990707e-005 -4.205932e-005 -1.946305e-005
<VARIANCE> 39
 4.903131e+001 3.175025e+001 4.229786e+001 3.588355e+001 5.316151e+001 4.197985e+001 5.202022e+001 4.888383e+001 4.431925e+001 3.482590e+001 2.981162e+001 2.252664e+001 7.380370e+001 2.708384e+000 1.940945e+000 2.224849e+000 2.220492e+000 3.333106e+000 2.839079e+000 3.365570e+000 2.718922e+000 2.869169e+000 2.577309e+000 1.999080e+000 1.691425e+000 1.796782e+000 4.211677e-001 2.997414e-001 3.533047e-001 3.832753e-001 5.842632e-001 4.934676e-001 6.021670e-001 4.947449e-001 5.121411e-001 4.832777e-001 3.780248e-001 3.224286e-001 2.559147e-001
<GCONST> 1.201926e+002
<STATE> 3
<MEAN> 39
 -2.222441e+000 -2.708222e+000 3.108068e+000 -2.464402e+000 -6.311431e+000 -1.736976e+000 -8.642424e+000 -4.641638e-001 9.865701e-001 5.417137e-001 5.261235e-001 -1.110524e+000 7.071455e+001 4.602423e-004 6.923532e-005 1.244897e-004 6.158851e-005 -4.891987e-004 7.387903e-006 -6.925895e-005 -3.708883e-004 -1.654896e-004 -5.566139e-004 1.930127e-004 -2.453134e-005 -2.923291e-003 7.611246e-006 -2.053565e-005 -4.995970e-005 -3.774019e-006 1.459992e-006 4.002525e-005 1.506312e-005 4.453514e-005 7.492490e-005 9.944455e-005 -3.990707e-005 -4.205932e-005 -1.946305e-005
<VARIANCE> 39
 4.903131e+001 3.175025e+001 4.229786e+001 3.588355e+001 5.316151e+001 4.197985e+001 5.202022e+001 4.888383e+001 4.431925e+001 3.482590e+001 2.981162e+001 2.252664e+001 7.380370e+001 2.708384e+000 1.940945e+000 2.224849e+000 2.220492e+000 3.333106e+000 2.839079e+000 3.365570e+000 2.718922e+000 2.869169e+000 2.577309e+000 1.999080e+000 1.691425e+000 1.796782e+000 4.211677e-001 2.997414e-001 3.533047e-001 3.832753e-001 5.842632e-001 4.934676e-001 6.021670e-001 4.947449e-001 5.121411e-001 4.832777e-001 3.780248e-001 3.224286e-001 2.559147e-001
<GCONST> 1.201926e+002
<STATE> 4
<MEAN> 39
 -2.222441e+000 -2.708222e+000 3.108068e+000 -2.464402e+000 -6.311431e+000 -1.736976e+000 -8.642424e+000 -4.641638e-001 9.865701e-001 5.417137e-001 5.261235e-001 -1.110524e+000 7.071455e+001 4.602423e-004 6.923532e-005 1.244897e-004 6.158851e-005 -4.891987e-004 7.387903e-006 -6.925895e-005 -3.708883e-004 -1.654896e-004 -5.566139e-004 1.930127e-004 -2.453134e-005 -2.923291e-003 7.611246e-006 -2.053565e-005 -4.995970e-005 -3.774019e-006 1.459992e-006 4.002525e-005 1.506312e-005 4.453514e-005 7.492490e-005 9.944455e-005 -3.990707e-005 -4.205932e-005 -1.946305e-005
<VARIANCE> 39
 4.903131e+001 3.175025e+001 4.229786e+001 3.588355e+001 5.316151e+001 4.197985e+001 5.202022e+001 4.888383e+001 4.431925e+001 3.482590e+001 2.981162e+001 2.252664e+001 7.380370e+001 2.708384e+000 1.940945e+000 2.224849e+000 2.220492e+000 3.333106e+000 2.839079e+000 3.365570e+000 2.718922e+000 2.869169e+000 2.577309e+000 1.999080e+000 1.691425e+000 1.796782e+000 4.211677e-001 2.997414e-001 3.533047e-001 3.832753e-001 5.842632e-001 4.934676e-001 6.021670e-001 4.947449e-001 5.121411e-001 4.832777e-001 3.780248e-001 3.224286e-001 2.559147e-001
<GCONST> 1.201926e+002
<TRANSP> 5
 0.000000e+000 1.000000e+000 0.000000e+000 0.000000e+000 0.000000e+000
 0.000000e+000 6.000000e-001 4.000000e-001 0.000000e+000 0.000000e+000
 0.000000e+000 0.000000e+000 6.000000e-001 4.000000e-001 0.000000e+000
 0.000000e+000 0.000000e+000 0.000000e+000 7.000000e-001 3.000000e-001
 0.000000e+000 0.000000e+000 0.000000e+000 0.000000e+000 0.000000e+000
<ENDHMM>
~h "k"
<BEGINHMM>
<NUMSTATES> 5
<STATE> 2
<MEAN> 39
 -2.222441e+000 -2.708222e+000 3.108068e+000 -2.464402e+000 -6.311431e+000 -1.736976e+000 -8.642424e+000 -4.641638e-001 9.865701e-001 5.417137e-001 5.261235e-001 -1.110524e+000 7.071455e+001 4.602423e-004 6.923532e-005 1.244897e-004 6.158851e-005 -4.891987e-004 7.387903e-006 -6.925895e-005 -3.708883e-004 -1.654896e-004 -5.566139e-004 1.930127e-004 -2.453134e-005 -2.923291e-003 7.611246e-006 -2.053565e-005 -4.995970e-005 -3.774019e-006 1.459992e-006 4.002525e-005 1.506312e-005 4.453514e-005 7.492490e-005 9.944455e-005 -3.990707e-005 -4.205932e-005 -1.946305e-005
<VARIANCE> 39
 4.903131e+001 3.175025e+001 4.229786e+001 3.588355e+001 5.316151e+001 4.197985e+001 5.202022e+001 4.888383e+001 4.431925e+001 3.482590e+001 2.981162e+001 2.252664e+001 7.380370e+001 2.708384e+000 1.940945e+000 2.224849e+000 2.220492e+000 3.333106e+000 2.839079e+000 3.365570e+000 2.718922e+000 2.869169e+000 2.577309e+000 1.999080e+000 1.691425e+000 1.796782e+000 4.211677e-001 2.997414e-001 3.533047e-001 3.832753e-001 5.842632e-001 4.934676e-001 6.021670e-001 4.947449e-001 5.121411e-001 4.832777e-001 3.780248e-001 3.224286e-001 2.559147e-001
<GCONST> 1.201926e+002
<STATE> 3
<MEAN> 39
 -2.222441e+000 -2.708222e+000 3.108068e+000 -2.464402e+000 -6.311431e+000 -1.736976e+000 -8.642424e+000 -4.641638e-001 9.865701e-001 5.417137e-001 5.261235e-001 -1.110524e+000 7.071455e+001 4.602423e-004 6.923532e-005 1.244897e-004 6.158851e-005 -4.891987e-004 7.387903e-006 -6.925895e-005 -3.708883e-004 -1.654896e-004 -5.566139e-004 1.930127e-004 -2.453134e-005 -2.923291e-003 7.611246e-006 -2.053565e-005 -4.995970e-005 -3.774019e-006 1.459992e-006 4.002525e-005 1.506312e-005 4.453514e-005 7.492490e-005 9.944455e-005 -3.990707e-005 -4.205932e-005 -1.946305e-005
<VARIANCE> 39
 4.903131e+001 3.175025e+001 4.229786e+001 3.588355e+001 5.316151e+001 4.197985e+001 5.202022e+001 4.888383e+001 4.431925e+001 3.482590e+001 2.981162e+001 2.252664e+001 7.380370e+001 2.708384e+000 1.940945e+000 2.224849e+000 2.220492e+000 3.333106e+000 2.839079e+000 3.365570e+000 2.718922e+000 2.869169e+000 2.577309e+000 1.999080e+000 1.691425e+000 1.796782e+000 4.211677e-001 2.997414e-001 3.533047e-001 3.832753e-001 5.842632e-001 4.934676e-001 6.021670e-001 4.947449e-001 5.121411e-001 4.832777e-001 3.780248e-001 3.224286e-001 2.559147e-001
<GCONST> 1.201926e+002
<STATE> 4
<MEAN> 39
 -2.222441e+000 -2.708222e+000 3.108068e+000 -2.464402e+000 -6.311431e+000 -1.736976e+000 -8.642424e+000 -4.641638e-001 9.865701e-001 5.417137e-001 5.261235e-001 -1.110524e+000 7.071455e+001 4.602423e-004 6.923532e-005 1.244897e-004 6.158851e-005 -4.891987e-004 7.387903e-006 -6.925895e-005 -3.708883e-004 -1.654896e-004 -5.566139e-004 1.930127e-004 -2.453134e-005 -2.923291e-003 7.611246e-006 -2.053565e-005 -4.995970e-005 -3.774019e-006 1.459992e-006 4.002525e-005 1.506312e-005 4.453514e-005 7.492490e-005 9.944455e-005 -3.990707e-005 -4.205932e-005 -1.946305e-005
<VARIANCE> 39
 4.903131e+001 3.175025e+001 4.229786e+001 3.588355e+001 5.316151e+001 4.197985e+001 5.202022e+001 4.888383e+001 4.431925e+001 3.482590e+001 2.981162e+001 2.252664e+001 7.380370e+001 2.708384e+000 1.940945e+000 2.224849e+000 2.220492e+000 3.333106e+000 2.839079e+000 3.365570e+000 2.718922e+000 2.869169e+000 2.577309e+000 1.999080e+000 1.691425e+000 1.796782e+000 4.211677e-001 2.997414e-001 3.533047e-001 3.832753e-001 5.842632e-001 4.934676e-001 6.021670e-001 4.947449e-001 5.121411e-001 4.832777e-001 3.780248e-001 3.224286e-001 2.559147e-001
<GCONST> 1.201926e+002
<TRANSP> 5
 0.000000e+000 1.000000e+000 0.000000e+000 0.000000e+000 0.000000e+000
 0.000000e+000 6.000000e-001 4.000000e-001 0.000000e+000 0.000000e+000
 0.000000e+000 0.000000e+000 6.000000e-001 4.000000e-001 0.000000e+000
 0.000000e+000 0.000000e+000 0.000000e+000 7.000000e-001 3.000000e-001
 0.000000e+000 0.000000e+000 0.000000e+000 0.000000e+000 0.000000e+000
<ENDHMM>
~h "l"
<BEGINHMM>
<NUMSTATES> 5
<STATE> 2
<MEAN> 39
 -2.222441e+000 -2.708222e+000 3.108068e+000 -2.464402e+000 -6.311431e+000 -1.736976e+000 -8.642424e+000 -4.641638e-001 9.865701e-001 5.417137e-001 5.261235e-001 -1.110524e+000 7.071455e+001 4.602423e-004 6.923532e-005 1.244897e-004 6.158851e-005 -4.891987e-004 7.387903e-006 -6.925895e-005 -3.708883e-004 -1.654896e-004 -5.566139e-004 1.930127e-004 -2.453134e-005 -2.923291e-003 7.611246e-006 -2.053565e-005 -4.995970e-005 -3.774019e-006 1.459992e-006 4.002525e-005 1.506312e-005 4.453514e-005 7.492490e-005 9.944455e-005 -3.990707e-005 -4.205932e-005 -1.946305e-005
<VARIANCE> 39
 4.903131e+001 3.175025e+001 4.229786e+001 3.588355e+001 5.316151e+001 4.197985e+001 5.202022e+001 4.888383e+001 4.431925e+001 3.482590e+001 2.981162e+001 2.252664e+001 7.380370e+001 2.708384e+000 1.940945e+000 2.224849e+000 2.220492e+000 3.333106e+000 2.839079e+000 3.365570e+000 2.718922e+000 2.869169e+000 2.577309e+000 1.999080e+000 1.691425e+000 1.796782e+000 4.211677e-001 2.997414e-001 3.533047e-001 3.832753e-001 5.842632e-001 4.934676e-001 6.021670e-001 4.947449e-001 5.121411e-001 4.832777e-001 3.780248e-001 3.224286e-001 2.559147e-001
<GCONST> 1.201926e+002
<STATE> 3
<MEAN> 39
 -2.222441e+000 -2.708222e+000 3.108068e+000 -2.464402e+000 -6.311431e+000 -1.736976e+000 -8.642424e+000 -4.641638e-001 9.865701e-001 5.417137e-001 5.261235e-001 -1.110524e+000 7.071455e+001 4.602423e-004 6.923532e-005 1.244897e-004 6.158851e-005 -4.891987e-004 7.387903e-006 -6.925895e-005 -3.708883e-004 -1.654896e-004 -5.566139e-004 1.930127e-004 -2.453134e-005 -2.923291e-003 7.611246e-006 -2.053565e-005 -4.995970e-005 -3.774019e-006 1.459992e-006 4.002525e-005 1.506312e-005 4.453514e-005 7.492490e-005 9.944455e-005 -3.990707e-005 -4.205932e-005 -1.946305e-005
<VARIANCE> 39
 4.903131e+001 3.175025e+001 4.229786e+001 3.588355e+001 5.316151e+001 4.197985e+001 5.202022e+001 4.888383e+001 4.431925e+001 3.482590e+001 2.981162e+001 2.252664e+001 7.380370e+001 2.708384e+000 1.940945e+000 2.224849e+000 2.220492e+000 3.333106e+000 2.839079e+000 3.365570e+000 2.718922e+000 2.869169e+000 2.577309e+000 1.999080e+000 1.691425e+000 1.796782e+000 4.211677e-001 2.997414e-001 3.533047e-001 3.832753e-001 5.842632e-001 4.934676e-001 6.021670e-001 4.947449e-001 5.121411e-001 4.832777e-001 3.780248e-001 3.224286e-001 2.559147e-001
<GCONST> 1.201926e+002
<STATE> 4
<MEAN> 39
 -2.222441e+000 -2.708222e+000 3.108068e+000 -2.464402e+000 -6.311431e+000 -1.736976e+000 -8.642424e+000 -4.641638e-001 9.865701e-001 5.417137e-001 5.261235e-001 -1.110524e+000 7.071455e+001 4.602423e-004 6.923532e-005 1.244897e-004 6.158851e-005 -4.891987e-004 7.387903e-006 -6.925895e-005 -3.708883e-004 -1.654896e-004 -5.566139e-004 1.930127e-004 -2.453134e-005 -2.923291e-003 7.611246e-006 -2.053565e-005 -4.995970e-005 -3.774019e-006 1.459992e-006 4.002525e-005 1.506312e-005 4.453514e-005 7.492490e-005 9.944455e-005 -3.990707e-005 -4.205932e-005 -1.946305e-005
<VARIANCE> 39
 4.903131e+001 3.175025e+001 4.229786e+001 3.588355e+001 5.316151e+001 4.197985e+001 5.202022e+001 4.888383e+001 4.431925e+001 3.482590e+001 2.981162e+001 2.252664e+001 7.380370e+001 2.708384e+000 1.940945e+000 2.224849e+000 2.220492e+000 3.333106e+000 2.839079e+000 3.365570e+000 2.718922e+000 2.869169e+000 2.577309e+000 1.999080e+000 1.691425e+000 1.796782e+000 4.211677e-001 2.997414e-001 3.533047e-001 3.832753e-001 5.842632e-001 4.934676e-001 6.021670e-001 4.947449e-001 5.121411e-001 4.832777e-001 3.780248e-001 3.224286e-001 2.559147e-001
<GCONST> 1.201926e+002
<TRANSP> 5
 0.000000e+000 1.000000e+000 0.000000e+000 0.000000e+000 0.000000e+000
 0.000000e+000 6.000000e-001 4.000000e-001 0.000000e+000 0.000000e+000
 0.000000e+000 0.000000e+000 6.000000e-001 4.000000e-001 0.000000e+000
 0.000000e+000 0.000000e+000 0.000000e+000 7.000000e-001 3.000000e-001
 0.000000e+000 0.000000e+000 0.000000e+000 0.000000e+000 0.000000e+000
<ENDHMM>
~h "m"
<BEGINHMM>
<NUMSTATES> 5
<STATE> 2
<MEAN> 39
 -2.222441e+000 -2.708222e+000 3.108068e+000 -2.464402e+000 -6.311431e+000 -1.736976e+000 -8.642424e+000 -4.641638e-001 9.865701e-001 5.417137e-001 5.261235e-001 -1.110524e+000 7.071455e+001 4.602423e-004 6.923532e-005 1.244897e-004 6.158851e-005 -4.891987e-004 7.387903e-006 -6.925895e-005 -3.708883e-004 -1.654896e-004 -5.566139e-004 1.930127e-004 -2.453134e-005 -2.923291e-003 7.611246e-006 -2.053565e-005 -4.995970e-005 -3.774019e-006 1.459992e-006 4.002525e-005 1.506312e-005 4.453514e-005 7.492490e-005 9.944455e-005 -3.990707e-005 -4.205932e-005 -1.946305e-005
<VARIANCE> 39
 4.903131e+001 3.175025e+001 4.229786e+001 3.588355e+001 5.316151e+001 4.197985e+001 5.202022e+001 4.888383e+001 4.431925e+001 3.482590e+001 2.981162e+001 2.252664e+001 7.380370e+001 2.708384e+000 1.940945e+000 2.224849e+000 2.220492e+000 3.333106e+000 2.839079e+000 3.365570e+000 2.718922e+000 2.869169e+000 2.577309e+000 1.999080e+000 1.691425e+000 1.796782e+000 4.211677e-001 2.997414e-001 3.533047e-001 3.832753e-001 5.842632e-001 4.934676e-001 6.021670e-001 4.947449e-001 5.121411e-001 4.832777e-001 3.780248e-001 3.224286e-001 2.559147e-001
<GCONST> 1.201926e+002
<STATE> 3
<MEAN> 39
 -2.222441e+000 -2.708222e+000 3.108068e+000 -2.464402e+000 -6.311431e+000 -1.736976e+000 -8.642424e+000 -4.641638e-001 9.865701e-001 5.417137e-001 5.261235e-001 -1.110524e+000 7.071455e+001 4.602423e-004 6.923532e-005 1.244897e-004 6.158851e-005 -4.891987e-004 7.387903e-006 -6.925895e-005 -3.708883e-004 -1.654896e-004 -5.566139e-004 1.930127e-004 -2.453134e-005 -2.923291e-003 7.611246e-006 -2.053565e-005 -4.995970e-005 -3.774019e-006 1.459992e-006 4.002525e-005 1.506312e-005 4.453514e-005 7.492490e-005 9.944455e-005 -3.990707e-005 -4.205932e-005 -1.946305e-005
<VARIANCE> 39
 4.903131e+001 3.175025e+001 4.229786e+001 3.588355e+001 5.316151e+001 4.197985e+001 5.202022e+001 4.888383e+001 4.431925e+001 3.482590e+001 2.981162e+001 2.252664e+001 7.380370e+001 2.708384e+000 1.940945e+000 2.224849e+000 2.220492e+000 3.333106e+000 2.839079e+000 3.365570e+000 2.718922e+000 2.869169e+000 2.577309e+000 1.999080e+000 1.691425e+000 1.796782e+000 4.211677e-001 2.997414e-001 3.533047e-001 3.832753e-001 5.842632e-001 4.934676e-001 6.021670e-001 4.947449e-001 5.121411e-001 4.832777e-001 3.780248e-001 3.224286e-001 2.559147e-001
<GCONST> 1.201926e+002
<STATE> 4
<MEAN> 39
 -2.222441e+000 -2.708222e+000 3.108068e+000 -2.464402e+000 -6.311431e+000 -1.736976e+000 -8.642424e+000 -4.641638e-001 9.865701e-001 5.417137e-001 5.261235e-001 -1.110524e+000 7.071455e+001 4.602423e-004 6.923532e-005 1.244897e-004 6.158851e-005 -4.891987e-004 7.387903e-006 -6.925895e-005 -3.708883e-004 -1.654896e-004 -5.566139e-004 1.930127e-004 -2.453134e-005 -2.923291e-003 7.611246e-006 -2.053565e-005 -4.995970e-005 -3.774019e-006 1.459992e-006 4.002525e-005 1.506312e-005 4.453514e-005 7.492490e-005 9.944455e-005 -3.990707e-005 -4.205932e-005 -1.946305e-005
<VARIANCE> 39
 4.903131e+001 3.175025e+001 4.229786e+001 3.588355e+001 5.316151e+001 4.197985e+001 5.202022e+001 4.888383e+001 4.431925e+001 3.482590e+001 2.981162e+001 2.252664e+001 7.380370e+001 2.708384e+000 1.940945e+000 2.224849e+000 2.220492e+000 3.333106e+000 2.839079e+000 3.365570e+000 2.718922e+000 2.869169e+000 2.577309e+000 1.999080e+000 1.691425e+000 1.796782e+000 4.211677e-001 2.997414e-001 3.533047e-001 3.832753e-001 5.842632e-001 4.934676e-001 6.021670e-001 4.947449e-001 5.121411e-001 4.832777e-001 3.780248e-001 3.224286e-001 2.559147e-001
<GCONST> 1.201926e+002
<TRANSP> 5
 0.000000e+000 1.000000e+000 0.000000e+000 0.000000e+000 0.000000e+000
 0.000000e+000 6.000000e-001 4.000000e-001 0.000000e+000 0.000000e+000
 0.000000e+000 0.000000e+000 6.000000e-001 4.000000e-001 0.000000e+000
 0.000000e+000 0.000000e+000 0.000000e+000 7.000000e-001 3.000000e-001
 0.000000e+000 0.000000e+000 0.000000e+000 0.000000e+000 0.000000e+000
<ENDHMM>
~h "n"
<BEGINHMM>
<NUMSTATES> 5
<STATE> 2
<MEAN> 39
 -2.222441e+000 -2.708222e+000 3.108068e+000 -2.464402e+000 -6.311431e+000 -1.736976e+000 -8.642424e+000 -4.641638e-001 9.865701e-001 5.417137e-001 5.261235e-001 -1.110524e+000 7.071455e+001 4.602423e-004 6.923532e-005 1.244897e-004 6.158851e-005 -4.891987e-004 7.387903e-006 -6.925895e-005 -3.708883e-004 -1.654896e-004 -5.566139e-004 1.930127e-004 -2.453134e-005 -2.923291e-003 7.611246e-006 -2.053565e-005 -4.995970e-005 -3.774019e-006 1.459992e-006 4.002525e-005 1.506312e-005 4.453514e-005 7.492490e-005 9.944455e-005 -3.990707e-005 -4.205932e-005 -1.946305e-005
<VARIANCE> 39
 4.903131e+001 3.175025e+001 4.229786e+001 3.588355e+001 5.316151e+001 4.197985e+001 5.202022e+001 4.888383e+001 4.431925e+001 3.482590e+001 2.981162e+001 2.252664e+001 7.380370e+001 2.708384e+000 1.940945e+000 2.224849e+000 2.220492e+000 3.333106e+000 2.839079e+000 3.365570e+000 2.718922e+000 2.869169e+000 2.577309e+000 1.999080e+000 1.691425e+000 1.796782e+000 4.211677e-001 2.997414e-001 3.533047e-001 3.832753e-001 5.842632e-001 4.934676e-001 6.021670e-001 4.947449e-001 5.121411e-001 4.832777e-001 3.780248e-001 3.224286e-001 2.559147e-001
<GCONST> 1.201926e+002
<STATE> 3
<MEAN> 39
 -2.222441e+000 -2.708222e+000 3.108068e+000 -2.464402e+000 -6.311431e+000 -1.736976e+000 -8.642424e+000 -4.641638e-001 9.865701e-001 5.417137e-001 5.261235e-001 -1.110524e+000 7.071455e+001 4.602423e-004 6.923532e-005 1.244897e-004 6.158851e-005 -4.891987e-004 7.387903e-006 -6.925895e-005 -3.708883e-004 -1.654896e-004 -5.566139e-004 1.930127e-004 -2.453134e-005 -2.923291e-003 7.611246e-006 -2.053565e-005 -4.995970e-005 -3.774019e-006 1.459992e-006 4.002525e-005 1.506312e-005 4.453514e-005 7.492490e-005 9.944455e-005 -3.990707e-005 -4.205932e-005 -1.946305e-005
<VARIANCE> 39
 4.903131e+001 3.175025e+001 4.229786e+001 3.588355e+001 5.316151e+001 4.197985e+001 5.202022e+001 4.888383e+001 4.431925e+001 3.482590e+001 2.981162e+001 2.252664e+001 7.380370e+001 2.708384e+000 1.940945e+000 2.224849e+000 2.220492e+000 3.333106e+000 2.839079e+000 3.365570e+000 2.718922e+000 2.869169e+000 2.577309e+000 1.999080e+000 1.691425e+000 1.796782e+000 4.211677e-001 2.997414e-001 3.533047e-001 3.832753e-001 5.842632e-001 4.934676e-001 6.021670e-001 4.947449e-001 5.121411e-001 4.832777e-001 3.780248e-001 3.224286e-001 2.559147e-001
<GCONST> 1.201926e+002
<STATE> 4
<MEAN> 39
 -2.222441e+000 -2.708222e+000 3.108068e+000 -2.464402e+000 -6.311431e+000 -1.736976e+000 -8.642424e+000 -4.641638e-001 9.865701e-001 5.417137e-001 5.261235e-001 -1.110524e+000 7.071455e+001 4.602423e-004 6.923532e-005 1.244897e-004 6.158851e-005 -4.891987e-004 7.387903e-006 -6.925895e-005 -3.708883e-004 -1.654896e-004 -5.566139e-004 1.930127e-004 -2.453134e-005 -2.923291e-003 7.611246e-006 -2.053565e-005 -4.995970e-005 -3.774019e-006 1.459992e-006 4.002525e-005 1.506312e-005 4.453514e-005 7.492490e-005 9.944455e-005 -3.990707e-005 -4.205932e-005 -1.946305e-005
<VARIANCE> 39
 4.903131e+001 3.175025e+001 4.229786e+001 3.588355e+001 5.316151e+001 4.197985e+001 5.202022e+001 4.888383e+001 4.431925e+001 3.482590e+001 2.981162e+001 2.252664e+001 7.380370e+001 2.708384e+000 1.940945e+000 2.224849e+000 2.220492e+000 3.333106e+000 2.839079e+000 3.365570e+000 2.718922e+000 2.869169e+000 2.577309e+000 1.999080e+000 1.691425e+000 1.796782e+000 4.211677e-001 2.997414e-001 3.533047e-001 3.832753e-001 5.842632e-001 4.934676e-001 6.021670e-001 4.947449e-001 5.121411e-001 4.832777e-001 3.780248e-001 3.224286e-001 2.559147e-001
<GCONST> 1.201926e+002
<TRANSP> 5
 0.000000e+000 1.000000e+000 0.000000e+000 0.000000e+000 0.000000e+000
 0.000000e+000 6.000000e-001 4.000000e-001 0.000000e+000 0.000000e+000
 0.000000e+000 0.000000e+000 6.000000e-001 4.000000e-001 0.000000e+000
 0.000000e+000 0.000000e+000 0.000000e+000 7.000000e-001 3.000000e-001
 0.000000e+000 0.000000e+000 0.000000e+000 0.000000e+000 0.000000e+000
<ENDHMM>
~h "o"
<BEGINHMM>
<NUMSTATES> 5
<STATE> 2
<MEAN> 39
 -2.222441e+000 -2.708222e+000 3.108068e+000 -2.464402e+000 -6.311431e+000 -1.736976e+000 -8.642424e+000 -4.641638e-001 9.865701e-001 5.417137e-001 5.261235e-001 -1.110524e+000 7.071455e+001 4.602423e-004 6.923532e-005 1.244897e-004 6.158851e-005 -4.891987e-004 7.387903e-006 -6.925895e-005 -3.708883e-004 -1.654896e-004 -5.566139e-004 1.930127e-004 -2.453134e-005 -2.923291e-003 7.611246e-006 -2.053565e-005 -4.995970e-005 -3.774019e-006 1.459992e-006 4.002525e-005 1.506312e-005 4.453514e-005 7.492490e-005 9.944455e-005 -3.990707e-005 -4.205932e-005 -1.946305e-005
<VARIANCE> 39
 4.903131e+001 3.175025e+001 4.229786e+001 3.588355e+001 5.316151e+001 4.197985e+001 5.202022e+001 4.888383e+001 4.431925e+001 3.482590e+001 2.981162e+001 2.252664e+001 7.380370e+001 2.708384e+000 1.940945e+000 2.224849e+000 2.220492e+000 3.333106e+000 2.839079e+000 3.365570e+000 2.718922e+000 2.869169e+000 2.577309e+000 1.999080e+000 1.691425e+000 1.796782e+000 4.211677e-001 2.997414e-001 3.533047e-001 3.832753e-001 5.842632e-001 4.934676e-001 6.021670e-001 4.947449e-001 5.121411e-001 4.832777e-001 3.780248e-001 3.224286e-001 2.559147e-001
<GCONST> 1.201926e+002
<STATE> 3
<MEAN> 39
 -2.222441e+000 -2.708222e+000 3.108068e+000 -2.464402e+000 -6.311431e+000 -1.736976e+000 -8.642424e+000 -4.641638e-001 9.865701e-001 5.417137e-001 5.261235e-001 -1.110524e+000 7.071455e+001 4.602423e-004 6.923532e-005 1.244897e-004 6.158851e-005 -4.891987e-004 7.387903e-006 -6.925895e-005 -3.708883e-004 -1.654896e-004 -5.566139e-004 1.930127e-004 -2.453134e-005 -2.923291e-003 7.611246e-006 -2.053565e-005 -4.995970e-005 -3.774019e-006 1.459992e-006 4.002525e-005 1.506312e-005 4.453514e-005 7.492490e-005 9.944455e-005 -3.990707e-005 -4.205932e-005 -1.946305e-005
<VARIANCE> 39
 4.903131e+001 3.175025e+001 4.229786e+001 3.588355e+001 5.316151e+001 4.197985e+001 5.202022e+001 4.888383e+001 4.431925e+001 3.482590e+001 2.981162e+001 2.252664e+001 7.380370e+001 2.708384e+000 1.940945e+000 2.224849e+000 2.220492e+000 3.333106e+000 2.839079e+000 3.365570e+000 2.718922e+000 2.869169e+000 2.577309e+000 1.999080e+000 1.691425e+000 1.796782e+000 4.211677e-001 2.997414e-001 3.533047e-001 3.832753e-001 5.842632e-001 4.934676e-001 6.021670e-001 4.947449e-001 5.121411e-001 4.832777e-001 3.780248e-001 3.224286e-001 2.559147e-001
<GCONST> 1.201926e+002
<STATE> 4
<MEAN> 39
 -2.222441e+000 -2.708222e+000 3.108068e+000 -2.464402e+000 -6.311431e+000 -1.736976e+000 -8.642424e+000 -4.641638e-001 9.865701e-001 5.417137e-001 5.261235e-001 -1.110524e+000 7.071455e+001 4.602423e-004 6.923532e-005 1.244897e-004 6.158851e-005 -4.891987e-004 7.387903e-006 -6.925895e-005 -3.708883e-004 -1.654896e-004 -5.566139e-004 1.930127e-004 -2.453134e-005 -2.923291e-003 7.611246e-006 -2.053565e-005 -4.995970e-005 -3.774019e-006 1.459992e-006 4.002525e-005 1.506312e-005 4.453514e-005 7.492490e-005 9.944455e-005 -3.990707e-005 -4.205932e-005 -1.946305e-005
<VARIANCE> 39
 4.903131e+001 3.175025e+001 4.229786e+001 3.588355e+001 5.316151e+001 4.197985e+001 5.202022e+001 4.888383e+001 4.431925e+001 3.482590e+001 2.981162e+001 2.252664e+001 7.380370e+001 2.708384e+000 1.940945e+000 2.224849e+000 2.220492e+000 3.333106e+000 2.839079e+000 3.365570e+000 2.718922e+000 2.869169e+000 2.577309e+000 1.999080e+000 1.691425e+000 1.796782e+000 4.211677e-001 2.997414e-001 3.533047e-001 3.832753e-001 5.842632e-001 4.934676e-001 6.021670e-001 4.947449e-001 5.121411e-001 4.832777e-001 3.780248e-001 3.224286e-001 2.559147e-001
<GCONST> 1.201926e+002
<TRANSP> 5
 0.000000e+000 1.000000e+000 0.000000e+000 0.000000e+000 0.000000e+000
 0.000000e+000 6.000000e-001 4.000000e-001 0.000000e+000 0.000000e+000
 0.000000e+000 0.000000e+000 6.000000e-001 4.000000e-001 0.000000e+000
 0.000000e+000 0.000000e+000 0.000000e+000 7.000000e-001 3.000000e-001
 0.000000e+000 0.000000e+000 0.000000e+000 0.000000e+000 0.000000e+000
<ENDHMM>
~h "p"
<BEGINHMM>
<NUMSTATES> 5
<STATE> 2
<MEAN> 39
 -2.222441e+000 -2.708222e+000 3.108068e+000 -2.464402e+000 -6.311431e+000 -1.736976e+000 -8.642424e+000 -4.641638e-001 9.865701e-001 5.417137e-001 5.261235e-001 -1.110524e+000 7.071455e+001 4.602423e-004 6.923532e-005 1.244897e-004 6.158851e-005 -4.891987e-004 7.387903e-006 -6.925895e-005 -3.708883e-004 -1.654896e-004 -5.566139e-004 1.930127e-004 -2.453134e-005 -2.923291e-003 7.611246e-006 -2.053565e-005 -4.995970e-005 -3.774019e-006 1.459992e-006 4.002525e-005 1.506312e-005 4.453514e-005 7.492490e-005 9.944455e-005 -3.990707e-005 -4.205932e-005 -1.946305e-005
<VARIANCE> 39
 4.903131e+001 3.175025e+001 4.229786e+001 3.588355e+001 5.316151e+001 4.197985e+001 5.202022e+001 4.888383e+001 4.431925e+001 3.482590e+001 2.981162e+001 2.252664e+001 7.380370e+001 2.708384e+000 1.940945e+000 2.224849e+000 2.220492e+000 3.333106e+000 2.839079e+000 3.365570e+000 2.718922e+000 2.869169e+000 2.577309e+000 1.999080e+000 1.691425e+000 1.796782e+000 4.211677e-001 2.997414e-001 3.533047e-001 3.832753e-001 5.842632e-001 4.934676e-001 6.021670e-001 4.947449e-001 5.121411e-001 4.832777e-001 3.780248e-001 3.224286e-001 2.559147e-001
<GCONST> 1.201926e+002
<STATE> 3
<MEAN> 39
 -2.222441e+000 -2.708222e+000 3.108068e+000 -2.464402e+000 -6.311431e+000 -1.736976e+000 -8.642424e+000 -4.641638e-001 9.865701e-001 5.417137e-001 5.261235e-001 -1.110524e+000 7.071455e+001 4.602423e-004 6.923532e-005 1.244897e-004 6.158851e-005 -4.891987e-004 7.387903e-006 -6.925895e-005 -3.708883e-004 -1.654896e-004 -5.566139e-004 1.930127e-004 -2.453134e-005 -2.923291e-003 7.611246e-006 -2.053565e-005 -4.995970e-005 -3.774019e-006 1.459992e-006 4.002525e-005 1.506312e-005 4.453514e-005 7.492490e-005 9.944455e-005 -3.990707e-005 -4.205932e-005 -1.946305e-005
<VARIANCE> 39
 4.903131e+001 3.175025e+001 4.229786e+001 3.588355e+001 5.316151e+001 4.197985e+001 5.202022e+001 4.888383e+001 4.431925e+001 3.482590e+001 2.981162e+001 2.252664e+001 7.380370e+001 2.708384e+000 1.940945e+000 2.224849e+000 2.220492e+000 3.333106e+000 2.839079e+000 3.365570e+000 2.718922e+000 2.869169e+000 2.577309e+000 1.999080e+000 1.691425e+000 1.796782e+000 4.211677e-001 2.997414e-001 3.533047e-001 3.832753e-001 5.842632e-001 4.934676e-001 6.021670e-001 4.947449e-001 5.121411e-001 4.832777e-001 3.780248e-001 3.224286e-001 2.559147e-001
<GCONST> 1.201926e+002
<STATE> 4
<MEAN> 39
 -2.222441e+000 -2.708222e+000 3.108068e+000 -2.464402e+000 -6.311431e+000 -1.736976e+000 -8.642424e+000 -4.641638e-001 9.865701e-001 5.417137e-001 5.261235e-001 -1.110524e+000 7.071455e+001 4.602423e-004 6.923532e-005 1.244897e-004 6.158851e-005 -4.891987e-004 7.387903e-006 -6.925895e-005 -3.708883e-004 -1.654896e-004 -5.566139e-004 1.930127e-004 -2.453134e-005 -2.923291e-003 7.611246e-006 -2.053565e-005 -4.995970e-005 -3.774019e-006 1.459992e-006 4.002525e-005 1.506312e-005 4.453514e-005 7.492490e-005 9.944455e-005 -3.990707e-005 -4.205932e-005 -1.946305e-005
<VARIANCE> 39
 4.903131e+001 3.175025e+001 4.229786e+001 3.588355e+001 5.316151e+001 4.197985e+001 5.202022e+001 4.888383e+001 4.431925e+001 3.482590e+001 2.981162e+001 2.252664e+001 7.380370e+001 2.708384e+000 1.940945e+000 2.224849e+000 2.220492e+000 3.333106e+000 2.839079e+000 3.365570e+000 2.718922e+000 2.869169e+000 2.577309e+000 1.999080e+000 1.691425e+000 1.796782e+000 4.211677e-001 2.997414e-001 3.533047e-001 3.832753e-001 5.842632e-001 4.934676e-001 6.021670e-001 4.947449e-001 5.121411e-001 4.832777e-001 3.780248e-001 3.224286e-001 2.559147e-001
<GCONST> 1.201926e+002
<TRANSP> 5
 0.000000e+000 1.000000e+000 0.000000e+000 0.000000e+000 0.000000e+000
 0.000000e+000 6.000000e-001 4.000000e-001 0.000000e+000 0.000000e+000
 0.000000e+000 0.000000e+000 6.000000e-001 4.000000e-001 0.000000e+000
 0.000000e+000 0.000000e+000 0.000000e+000 7.000000e-001 3.000000e-001
 0.000000e+000 0.000000e+000 0.000000e+000 0.000000e+000 0.000000e+000
<ENDHMM>
~h "r"
<BEGINHMM>
<NUMSTATES> 5
<STATE> 2
<MEAN> 39
 -2.222441e+000 -2.708222e+000 3.108068e+000 -2.464402e+000 -6.311431e+000 -1.736976e+000 -8.642424e+000 -4.641638e-001 9.865701e-001 5.417137e-001 5.261235e-001 -1.110524e+000 7.071455e+001 4.602423e-004 6.923532e-005 1.244897e-004 6.158851e-005 -4.891987e-004 7.387903e-006 -6.925895e-005 -3.708883e-004 -1.654896e-004 -5.566139e-004 1.930127e-004 -2.453134e-005 -2.923291e-003 7.611246e-006 -2.053565e-005 -4.995970e-005 -3.774019e-006 1.459992e-006 4.002525e-005 1.506312e-005 4.453514e-005 7.492490e-005 9.944455e-005 -3.990707e-005 -4.205932e-005 -1.946305e-005
<VARIANCE> 39
 4.903131e+001 3.175025e+001 4.229786e+001 3.588355e+001 5.316151e+001 4.197985e+001 5.202022e+001 4.888383e+001 4.431925e+001 3.482590e+001 2.981162e+001 2.252664e+001 7.380370e+001 2.708384e+000 1.940945e+000 2.224849e+000 2.220492e+000 3.333106e+000 2.839079e+000 3.365570e+000 2.718922e+000 2.869169e+000 2.577309e+000 1.999080e+000 1.691425e+000 1.796782e+000 4.211677e-001 2.997414e-001 3.533047e-001 3.832753e-001 5.842632e-001 4.934676e-001 6.021670e-001 4.947449e-001 5.121411e-001 4.832777e-001 3.780248e-001 3.224286e-001 2.559147e-001
<GCONST> 1.201926e+002
<STATE> 3
<MEAN> 39
 -2.222441e+000 -2.708222e+000 3.108068e+000 -2.464402e+000 -6.311431e+000 -1.736976e+000 -8.642424e+000 -4.641638e-001 9.865701e-001 5.417137e-001 5.261235e-001 -1.110524e+000 7.071455e+001 4.602423e-004 6.923532e-005 1.244897e-004 6.158851e-005 -4.891987e-004 7.387903e-006 -6.925895e-005 -3.708883e-004 -1.654896e-004 -5.566139e-004 1.930127e-004 -2.453134e-005 -2.923291e-003 7.611246e-006 -2.053565e-005 -4.995970e-005 -3.774019e-006 1.459992e-006 4.002525e-005 1.506312e-005 4.453514e-005 7.492490e-005 9.944455e-005 -3.990707e-005 -4.205932e-005 -1.946305e-005
<VARIANCE> 39
 4.903131e+001 3.175025e+001 4.229786e+001 3.588355e+001 5.316151e+001 4.197985e+001 5.202022e+001 4.888383e+001 4.431925e+001 3.482590e+001 2.981162e+001 2.252664e+001 7.380370e+001 2.708384e+000 1.940945e+000 2.224849e+000 2.220492e+000 3.333106e+000 2.839079e+000 3.365570e+000 2.718922e+000 2.869169e+000 2.577309e+000 1.999080e+000 1.691425e+000 1.796782e+000 4.211677e-001 2.997414e-001 3.533047e-001 3.832753e-001 5.842632e-001 4.934676e-001 6.021670e-001 4.947449e-001 5.121411e-001 4.832777e-001 3.780248e-001 3.224286e-001 2.559147e-001
<GCONST> 1.201926e+002
<STATE> 4
<MEAN> 39
 -2.222441e+000 -2.708222e+000 3.108068e+000 -2.464402e+000 -6.311431e+000 -1.736976e+000 -8.642424e+000 -4.641638e-001 9.865701e-001 5.417137e-001 5.261235e-001 -1.110524e+000 7.071455e+001 4.602423e-004 6.923532e-005 1.244897e-004 6.158851e-005 -4.891987e-004 7.387903e-006 -6.925895e-005 -3.708883e-004 -1.654896e-004 -5.566139e-004 1.930127e-004 -2.453134e-005 -2.923291e-003 7.611246e-006 -2.053565e-005 -4.995970e-005 -3.774019e-006 1.459992e-006 4.002525e-005 1.506312e-005 4.453514e-005 7.492490e-005 9.944455e-005 -3.990707e-005 -4.205932e-005 -1.946305e-005
<VARIANCE> 39
 4.903131e+001 3.175025e+001 4.229786e+001 3.588355e+001 5.316151e+001 4.197985e+001 5.202022e+001 4.888383e+001 4.431925e+001 3.482590e+001 2.981162e+001 2.252664e+001 7.380370e+001 2.708384e+000 1.940945e+000 2.224849e+000 2.220492e+000 3.333106e+000 2.839079e+000 3.365570e+000 2.718922e+000 2.869169e+000 2.577309e+000 1.999080e+000 1.691425e+000 1.796782e+000 4.211677e-001 2.997414e-001 3.533047e-001 3.832753e-001 5.842632e-001 4.934676e-001 6.021670e-001 4.947449e-001 5.121411e-001 4.832777e-001 3.780248e-001 3.224286e-001 2.559147e-001
<GCONST> 1.201926e+002
<TRANSP> 5
 0.000000e+000 1.000000e+000 0.000000e+000 0.000000e+000 0.000000e+000
 0.000000e+000 6.000000e-001 4.000000e-001 0.000000e+000 0.000000e+000
 0.000000e+000 0.000000e+000 6.000000e-001 4.000000e-001 0.000000e+000
 0.000000e+000 0.000000e+000 0.000000e+000 7.000000e-001 3.000000e-001
 0.000000e+000 0.000000e+000 0.000000e+000 0.000000e+000 0.000000e+000
<ENDHMM>
~h "s"
<BEGINHMM>
<NUMSTATES> 5
<STATE> 2
<MEAN> 39
 -2.222441e+000 -2.708222e+000 3.108068e+000 -2.464402e+000 -6.311431e+000 -1.736976e+000 -8.642424e+000 -4.641638e-001 9.865701e-001 5.417137e-001 5.261235e-001 -1.110524e+000 7.071455e+001 4.602423e-004 6.923532e-005 1.244897e-004 6.158851e-005 -4.891987e-004 7.387903e-006 -6.925895e-005 -3.708883e-004 -1.654896e-004 -5.566139e-004 1.930127e-004 -2.453134e-005 -2.923291e-003 7.611246e-006 -2.053565e-005 -4.995970e-005 -3.774019e-006 1.459992e-006 4.002525e-005 1.506312e-005 4.453514e-005 7.492490e-005 9.944455e-005 -3.990707e-005 -4.205932e-005 -1.946305e-005
<VARIANCE> 39
 4.903131e+001 3.175025e+001 4.229786e+001 3.588355e+001 5.316151e+001 4.197985e+001 5.202022e+001 4.888383e+001 4.431925e+001 3.482590e+001 2.981162e+001 2.252664e+001 7.380370e+001 2.708384e+000 1.940945e+000 2.224849e+000 2.220492e+000 3.333106e+000 2.839079e+000 3.365570e+000 2.718922e+000 2.869169e+000 2.577309e+000 1.999080e+000 1.691425e+000 1.796782e+000 4.211677e-001 2.997414e-001 3.533047e-001 3.832753e-001 5.842632e-001 4.934676e-001 6.021670e-001 4.947449e-001 5.121411e-001 4.832777e-001 3.780248e-001 3.224286e-001 2.559147e-001
<GCONST> 1.201926e+002
<STATE> 3
<MEAN> 39
 -2.222441e+000 -2.708222e+000 3.108068e+000 -2.464402e+000 -6.311431e+000 -1.736976e+000 -8.642424e+000 -4.641638e-001 9.865701e-001 5.417137e-001 5.261235e-001 -1.110524e+000 7.071455e+001 4.602423e-004 6.923532e-005 1.244897e-004 6.158851e-005 -4.891987e-004 7.387903e-006 -6.925895e-005 -3.708883e-004 -1.654896e-004 -5.566139e-004 1.930127e-004 -2.453134e-005 -2.923291e-003 7.611246e-006 -2.053565e-005 -4.995970e-005 -3.774019e-006 1.459992e-006 4.002525e-005 1.506312e-005 4.453514e-005 7.492490e-005 9.944455e-005 -3.990707e-005 -4.205932e-005 -1.946305e-005
<VARIANCE> 39
 4.903131e+001 3.175025e+001 4.229786e+001 3.588355e+001 5.316151e+001 4.197985e+001 5.202022e+001 4.888383e+001 4.431925e+001 3.482590e+001 2.981162e+001 2.252664e+001 7.380370e+001 2.708384e+000 1.940945e+000 2.224849e+000 2.220492e+000 3.333106e+000 2.839079e+000 3.365570e+000 2.718922e+000 2.869169e+000 2.577309e+000 1.999080e+000 1.691425e+000 1.796782e+000 4.211677e-001 2.997414e-001 3.533047e-001 3.832753e-001 5.842632e-001 4.934676e-001 6.021670e-001 4.947449e-001 5.121411e-001 4.832777e-001 3.780248e-001 3.224286e-001 2.559147e-001
<GCONST> 1.201926e+002
<STATE> 4
<MEAN> 39
 -2.222441e+000 -2.708222e+000 3.108068e+000 -2.464402e+000 -6.311431e+000 -1.736976e+000 -8.642424e+000 -4.641638e-001 9.865701e-001 5.417137e-001 5.261235e-001 -1.110524e+000 7.071455e+001 4.602423e-004 6.923532e-005 1.244897e-004 6.158851e-005 -4.891987e-004 7.387903e-006 -6.925895e-005 -3.708883e-004 -1.654896e-004 -5.566139e-004 1.930127e-004 -2.453134e-005 -2.923291e-003 7.611246e-006 -2.053565e-005 -4.995970e-005 -3.774019e-006 1.459992e-006 4.002525e-005 1.506312e-005 4.453514e-005 7.492490e-005 9.944455e-005 -3.990707e-005 -4.205932e-005 -1.946305e-005
<VARIANCE> 39
 4.903131e+001 3.175025e+001 4.229786e+001 3.588355e+001 5.316151e+001 4.197985e+001 5.202022e+001 4.888383e+001 4.431925e+001 3.482590e+001 2.981162e+001 2.252664e+001 7.380370e+001 2.708384e+000 1.940945e+000 2.224849e+000 2.220492e+000 3.333106e+000 2.839079e+000 3.365570e+000 2.718922e+000 2.869169e+000 2.577309e+000 1.999080e+000 1.691425e+000 1.796782e+000 4.211677e-001 2.997414e-001 3.533047e-001 3.832753e-001 5.842632e-001 4.934676e-001 6.021670e-001 4.947449e-001 5.121411e-001 4.832777e-001 3.780248e-001 3.224286e-001 2.559147e-001
<GCONST> 1.201926e+002
<TRANSP> 5
 0.000000e+000 1.000000e+000 0.000000e+000 0.000000e+000 0.000000e+000
 0.000000e+000 6.000000e-001 4.000000e-001 0.000000e+000 0.000000e+000
 0.000000e+000 0.000000e+000 6.000000e-001 4.000000e-001 0.000000e+000
 0.000000e+000 0.000000e+000 0.000000e+000 7.000000e-001 3.000000e-001
 0.000000e+000 0.000000e+000 0.000000e+000 0.000000e+000 0.000000e+000
<ENDHMM>
~h "t"
<BEGINHMM>
<NUMSTATES> 5
<STATE> 2
<MEAN> 39
 -2.222441e+000 -2.708222e+000 3.108068e+000 -2.464402e+000 -6.311431e+000 -1.736976e+000 -8.642424e+000 -4.641638e-001 9.865701e-001 5.417137e-001 5.261235e-001 -1.110524e+000 7.071455e+001 4.602423e-004 6.923532e-005 1.244897e-004 6.158851e-005 -4.891987e-004 7.387903e-006 -6.925895e-005 -3.708883e-004 -1.654896e-004 -5.566139e-004 1.930127e-004 -2.453134e-005 -2.923291e-003 7.611246e-006 -2.053565e-005 -4.995970e-005 -3.774019e-006 1.459992e-006 4.002525e-005 1.506312e-005 4.453514e-005 7.492490e-005 9.944455e-005 -3.990707e-005 -4.205932e-005 -1.946305e-005
<VARIANCE> 39
 4.903131e+001 3.175025e+001 4.229786e+001 3.588355e+001 5.316151e+001 4.197985e+001 5.202022e+001 4.888383e+001 4.431925e+001 3.482590e+001 2.981162e+001 2.252664e+001 7.380370e+001 2.708384e+000 1.940945e+000 2.224849e+000 2.220492e+000 3.333106e+000 2.839079e+000 3.365570e+000 2.718922e+000 2.869169e+000 2.577309e+000 1.999080e+000 1.691425e+000 1.796782e+000 4.211677e-001 2.997414e-001 3.533047e-001 3.832753e-001 5.842632e-001 4.934676e-001 6.021670e-001 4.947449e-001 5.121411e-001 4.832777e-001 3.780248e-001 3.224286e-001 2.559147e-001
<GCONST> 1.201926e+002
<STATE> 3
<MEAN> 39
 -2.222441e+000 -2.708222e+000 3.108068e+000 -2.464402e+000 -6.311431e+000 -1.736976e+000 -8.642424e+000 -4.641638e-001 9.865701e-001 5.417137e-001 5.261235e-001 -1.110524e+000 7.071455e+001 4.602423e-004 6.923532e-005 1.244897e-004 6.158851e-005 -4.891987e-004 7.387903e-006 -6.925895e-005 -3.708883e-004 -1.654896e-004 -5.566139e-004 1.930127e-004 -2.453134e-005 -2.923291e-003 7.611246e-006 -2.053565e-005 -4.995970e-005 -3.774019e-006 1.459992e-006 4.002525e-005 1.506312e-005 4.453514e-005 7.492490e-005 9.944455e-005 -3.990707e-005 -4.205932e-005 -1.946305e-005
<VARIANCE> 39
 4.903131e+001 3.175025e+001 4.229786e+001 3.588355e+001 5.316151e+001 4.197985e+001 5.202022e+001 4.888383e+001 4.431925e+001 3.482590e+001 2.981162e+001 2.252664e+001 7.380370e+001 2.708384e+000 1.940945e+000 2.224849e+000 2.220492e+000 3.333106e+000 2.839079e+000 3.365570e+000 2.718922e+000 2.869169e+000 2.577309e+000 1.999080e+000 1.691425e+000 1.796782e+000 4.211677e-001 2.997414e-001 3.533047e-001 3.832753e-001 5.842632e-001 4.934676e-001 6.021670e-001 4.947449e-001 5.121411e-001 4.832777e-001 3.780248e-001 3.224286e-001 2.559147e-001
<GCONST> 1.201926e+002
<STATE> 4
<MEAN> 39
 -2.222441e+000 -2.708222e+000 3.108068e+000 -2.464402e+000 -6.311431e+000 -1.736976e+000 -8.642424e+000 -4.641638e-001 9.865701e-001 5.417137e-001 5.261235e-001 -1.110524e+000 7.071455e+001 4.602423e-004 6.923532e-005 1.244897e-004 6.158851e-005 -4.891987e-004 7.387903e-006 -6.925895e-005 -3.708883e-004 -1.654896e-004 -5.566139e-004 1.930127e-004 -2.453134e-005 -2.923291e-003 7.611246e-006 -2.053565e-005 -4.995970e-005 -3.774019e-006 1.459992e-006 4.002525e-005 1.506312e-005 4.453514e-005 7.492490e-005 9.944455e-005 -3.990707e-005 -4.205932e-005 -1.946305e-005
<VARIANCE> 39
 4.903131e+001 3.175025e+001 4.229786e+001 3.588355e+001 5.316151e+001 4.197985e+001 5.202022e+001 4.888383e+001 4.431925e+001 3.482590e+001 2.981162e+001 2.252664e+001 7.380370e+001 2.708384e+000 1.940945e+000 2.224849e+000 2.220492e+000 3.333106e+000 2.839079e+000 3.365570e+000 2.718922e+000 2.869169e+000 2.577309e+000 1.999080e+000 1.691425e+000 1.796782e+000 4.211677e-001 2.997414e-001 3.533047e-001 3.832753e-001 5.842632e-001 4.934676e-001 6.021670e-001 4.947449e-001 5.121411e-001 4.832777e-001 3.780248e-001 3.224286e-001 2.559147e-001
<GCONST> 1.201926e+002
<TRANSP> 5
 0.000000e+000 1.000000e+000 0.000000e+000 0.000000e+000 0.000000e+000
 0.000000e+000 6.000000e-001 4.000000e-001 0.000000e+000 0.000000e+000
 0.000000e+000 0.000000e+000 6.000000e-001 4.000000e-001 0.000000e+000
 0.000000e+000 0.000000e+000 0.000000e+000 7.000000e-001 3.000000e-001
 0.000000e+000 0.000000e+000 0.000000e+000 0.000000e+000 0.000000e+000
<ENDHMM>
~h "u"
<BEGINHMM>
<NUMSTATES> 5
<STATE> 2
<MEAN> 39
 -2.222441e+000 -2.708222e+000 3.108068e+000 -2.464402e+000 -6.311431e+000 -1.736976e+000 -8.642424e+000 -4.641638e-001 9.865701e-001 5.417137e-001 5.261235e-001 -1.110524e+000 7.071455e+001 4.602423e-004 6.923532e-005 1.244897e-004 6.158851e-005 -4.891987e-004 7.387903e-006 -6.925895e-005 -3.708883e-004 -1.654896e-004 -5.566139e-004 1.930127e-004 -2.453134e-005 -2.923291e-003 7.611246e-006 -2.053565e-005 -4.995970e-005 -3.774019e-006 1.459992e-006 4.002525e-005 1.506312e-005 4.453514e-005 7.492490e-005 9.944455e-005 -3.990707e-005 -4.205932e-005 -1.946305e-005
<VARIANCE> 39
 4.903131e+001 3.175025e+001 4.229786e+001 3.588355e+001 5.316151e+001 4.197985e+001 5.202022e+001 4.888383e+001 4.431925e+001 3.482590e+001 2.981162e+001 2.252664e+001 7.380370e+001 2.708384e+000 1.940945e+000 2.224849e+000 2.220492e+000 3.333106e+000 2.839079e+000 3.365570e+000 2.718922e+000 2.869169e+000 2.577309e+000 1.999080e+000 1.691425e+000 1.796782e+000 4.211677e-001 2.997414e-001 3.533047e-001 3.832753e-001 5.842632e-001 4.934676e-001 6.021670e-001 4.947449e-001 5.121411e-001 4.832777e-001 3.780248e-001 3.224286e-001 2.559147e-001
<GCONST> 1.201926e+002
<STATE> 3
<MEAN> 39
 -2.222441e+000 -2.708222e+000 3.108068e+000 -2.464402e+000 -6.311431e+000 -1.736976e+000 -8.642424e+000 -4.641638e-001 9.865701e-001 5.417137e-001 5.261235e-001 -1.110524e+000 7.071455e+001 4.602423e-004 6.923532e-005 1.244897e-004 6.158851e-005 -4.891987e-004 7.387903e-006 -6.925895e-005 -3.708883e-004 -1.654896e-004 -5.566139e-004 1.930127e-004 -2.453134e-005 -2.923291e-003 7.611246e-006 -2.053565e-005 -4.995970e-005 -3.774019e-006 1.459992e-006 4.002525e-005 1.506312e-005 4.453514e-005 7.492490e-005 9.944455e-005 -3.990707e-005 -4.205932e-005 -1.946305e-005
<VARIANCE> 39
 4.903131e+001 3.175025e+001 4.229786e+001 3.588355e+001 5.316151e+001 4.197985e+001 5.202022e+001 4.888383e+001 4.431925e+001 3.482590e+001 2.981162e+001 2.252664e+001 7.380370e+001 2.708384e+000 1.940945e+000 2.224849e+000 2.220492e+000 3.333106e+000 2.839079e+000 3.365570e+000 2.718922e+000 2.869169e+000 2.577309e+000 1.999080e+000 1.691425e+000 1.796782e+000 4.211677e-001 2.997414e-001 3.533047e-001 3.832753e-001 5.842632e-001 4.934676e-001 6.021670e-001 4.947449e-001 5.121411e-001 4.832777e-001 3.780248e-001 3.224286e-001 2.559147e-001
<GCONST> 1.201926e+002
<STATE> 4
<MEAN> 39
 -2.222441e+000 -2.708222e+000 3.108068e+000 -2.464402e+000 -6.311431e+000 -1.736976e+000 -8.642424e+000 -4.641638e-001 9.865701e-001 5.417137e-001 5.261235e-001 -1.110524e+000 7.071455e+001 4.602423e-004 6.923532e-005 1.244897e-004 6.158851e-005 -4.891987e-004 7.387903e-006 -6.925895e-005 -3.708883e-004 -1.654896e-004 -5.566139e-004 1.930127e-004 -2.453134e-005 -2.923291e-003 7.611246e-006 -2.053565e-005 -4.995970e-005 -3.774019e-006 1.459992e-006 4.002525e-005 1.506312e-005 4.453514e-005 7.492490e-005 9.944455e-005 -3.990707e-005 -4.205932e-005 -1.946305e-005
<VARIANCE> 39
 4.903131e+001 3.175025e+001 4.229786e+001 3.588355e+001 5.316151e+001 4.197985e+001 5.202022e+001 4.888383e+001 4.431925e+001 3.482590e+001 2.981162e+001 2.252664e+001 7.380370e+001 2.708384e+000 1.940945e+000 2.224849e+000 2.220492e+000 3.333106e+000 2.839079e+000 3.365570e+000 2.718922e+000 2.869169e+000 2.577309e+000 1.999080e+000 1.691425e+000 1.796782e+000 4.211677e-001 2.997414e-001 3.533047e-001 3.832753e-001 5.842632e-001 4.934676e-001 6.021670e-001 4.947449e-001 5.121411e-001 4.832777e-001 3.780248e-001 3.224286e-001 2.559147e-001
<GCONST> 1.201926e+002
<TRANSP> 5
 0.000000e+000 1.000000e+000 0.000000e+000 0.000000e+000 0.000000e+000
 0.000000e+000 6.000000e-001 4.000000e-001 0.000000e+000 0.000000e+000
 0.000000e+000 0.000000e+000 6.000000e-001 4.000000e-001 0.000000e+000
 0.000000e+000 0.000000e+000 0.000000e+000 7.000000e-001 3.000000e-001
 0.000000e+000 0.000000e+000 0.000000e+000 0.000000e+000 0.000000e+000
<ENDHMM>
~h "w"
<BEGINHMM>
<NUMSTATES> 5
<STATE> 2
<MEAN> 39
 -2.222441e+000 -2.708222e+000 3.108068e+000 -2.464402e+000 -6.311431e+000 -1.736976e+000 -8.642424e+000 -4.641638e-001 9.865701e-001 5.417137e-001 5.261235e-001 -1.110524e+000 7.071455e+001 4.602423e-004 6.923532e-005 1.244897e-004 6.158851e-005 -4.891987e-004 7.387903e-006 -6.925895e-005 -3.708883e-004 -1.654896e-004 -5.566139e-004 1.930127e-004 -2.453134e-005 -2.923291e-003 7.611246e-006 -2.053565e-005 -4.995970e-005 -3.774019e-006 1.459992e-006 4.002525e-005 1.506312e-005 4.453514e-005 7.492490e-005 9.944455e-005 -3.990707e-005 -4.205932e-005 -1.946305e-005
<VARIANCE> 39
 4.903131e+001 3.175025e+001 4.229786e+001 3.588355e+001 5.316151e+001 4.197985e+001 5.202022e+001 4.888383e+001 4.431925e+001 3.482590e+001 2.981162e+001 2.252664e+001 7.380370e+001 2.708384e+000 1.940945e+000 2.224849e+000 2.220492e+000 3.333106e+000 2.839079e+000 3.365570e+000 2.718922e+000 2.869169e+000 2.577309e+000 1.999080e+000 1.691425e+000 1.796782e+000 4.211677e-001 2.997414e-001 3.533047e-001 3.832753e-001 5.842632e-001 4.934676e-001 6.021670e-001 4.947449e-001 5.121411e-001 4.832777e-001 3.780248e-001 3.224286e-001 2.559147e-001
<GCONST> 1.201926e+002
<STATE> 3
<MEAN> 39
 -2.222441e+000 -2.708222e+000 3.108068e+000 -2.464402e+000 -6.311431e+000 -1.736976e+000 -8.642424e+000 -4.641638e-001 9.865701e-001 5.417137e-001 5.261235e-001 -1.110524e+000 7.071455e+001 4.602423e-004 6.923532e-005 1.244897e-004 6.158851e-005 -4.891987e-004 7.387903e-006 -6.925895e-005 -3.708883e-004 -1.654896e-004 -5.566139e-004 1.930127e-004 -2.453134e-005 -2.923291e-003 7.611246e-006 -2.053565e-005 -4.995970e-005 -3.774019e-006 1.459992e-006 4.002525e-005 1.506312e-005 4.453514e-005 7.492490e-005 9.944455e-005 -3.990707e-005 -4.205932e-005 -1.946305e-005
<VARIANCE> 39
 4.903131e+001 3.175025e+001 4.229786e+001 3.588355e+001 5.316151e+001 4.197985e+001 5.202022e+001 4.888383e+001 4.431925e+001 3.482590e+001 2.981162e+001 2.252664e+001 7.380370e+001 2.708384e+000 1.940945e+000 2.224849e+000 2.220492e+000 3.333106e+000 2.839079e+000 3.365570e+000 2.718922e+000 2.869169e+000 2.577309e+000 1.999080e+000 1.691425e+000 1.796782e+000 4.211677e-001 2.997414e-001 3.533047e-001 3.832753e-001 5.842632e-001 4.934676e-001 6.021670e-001 4.947449e-001 5.121411e-001 4.832777e-001 3.780248e-001 3.224286e-001 2.559147e-001
<GCONST> 1.201926e+002
<STATE> 4
<MEAN> 39
 -2.222441e+000 -2.708222e+000 3.108068e+000 -2.464402e+000 -6.311431e+000 -1.736976e+000 -8.642424e+000 -4.641638e-001 9.865701e-001 5.417137e-001 5.261235e-001 -1.110524e+000 7.071455e+001 4.602423e-004 6.923532e-005 1.244897e-004 6.158851e-005 -4.891987e-004 7.387903e-006 -6.925895e-005 -3.708883e-004 -1.654896e-004 -5.566139e-004 1.930127e-004 -2.453134e-005 -2.923291e-003 7.611246e-006 -2.053565e-005 -4.995970e-005 -3.774019e-006 1.459992e-006 4.002525e-005 1.506312e-005 4.453514e-005 7.492490e-005 9.944455e-005 -3.990707e-005 -4.205932e-005 -1.946305e-005
<VARIANCE> 39
 4.903131e+001 3.175025e+001 4.229786e+001 3.588355e+001 5.316151e+001 4.197985e+001 5.202022e+001 4.888383e+001 4.431925e+001 3.482590e+001 2.981162e+001 2.252664e+001 7.380370e+001 2.708384e+000 1.940945e+000 2.224849e+000 2.220492e+000 3.333106e+000 2.839079e+000 3.365570e+000 2.718922e+000 2.869169e+000 2.577309e+000 1.999080e+000 1.691425e+000 1.796782e+000 4.211677e-001 2.997414e-001 3.533047e-001 3.832753e-001 5.842632e-001 4.934676e-001 6.021670e-001 4.947449e-001 5.121411e-001 4.832777e-001 3.780248e-001 3.224286e-001 2.559147e-001
<GCONST> 1.201926e+002
<TRANSP> 5
 0.000000e+000 1.000000e+000 0.000000e+000 0.000000e+000 0.000000e+000
 0.000000e+000 6.000000e-001 4.000000e-001 0.000000e+000 0.000000e+000
 0.000000e+000 0.000000e+000 6.000000e-001 4.000000e-001 0.000000e+000
 0.000000e+000 0.000000e+000 0.000000e+000 7.000000e-001 3.000000e-001
 0.000000e+000 0.000000e+000 0.000000e+000 0.000000e+000 0.000000e+000
<ENDHMM>
~h "y"
<BEGINHMM>
<NUMSTATES> 5
<STATE> 2
<MEAN> 39
 -2.222441e+000 -2.708222e+000 3.108068e+000 -2.464402e+000 -6.311431e+000 -1.736976e+000 -8.642424e+000 -4.641638e-001 9.865701e-001 5.417137e-001 5.261235e-001 -1.110524e+000 7.071455e+001 4.602423e-004 6.923532e-005 1.244897e-004 6.158851e-005 -4.891987e-004 7.387903e-006 -6.925895e-005 -3.708883e-004 -1.654896e-004 -5.566139e-004 1.930127e-004 -2.453134e-005 -2.923291e-003 7.611246e-006 -2.053565e-005 -4.995970e-005 -3.774019e-006 1.459992e-006 4.002525e-005 1.506312e-005 4.453514e-005 7.492490e-005 9.944455e-005 -3.990707e-005 -4.205932e-005 -1.946305e-005
<VARIANCE> 39
 4.903131e+001 3.175025e+001 4.229786e+001 3.588355e+001 5.316151e+001 4.197985e+001 5.202022e+001 4.888383e+001 4.431925e+001 3.482590e+001 2.981162e+001 2.252664e+001 7.380370e+001 2.708384e+000 1.940945e+000 2.224849e+000 2.220492e+000 3.333106e+000 2.839079e+000 3.365570e+000 2.718922e+000 2.869169e+000 2.577309e+000 1.999080e+000 1.691425e+000 1.796782e+000 4.211677e-001 2.997414e-001 3.533047e-001 3.832753e-001 5.842632e-001 4.934676e-001 6.021670e-001 4.947449e-001 5.121411e-001 4.832777e-001 3.780248e-001 3.224286e-001 2.559147e-001
<GCONST> 1.201926e+002
<STATE> 3
<MEAN> 39
 -2.222441e+000 -2.708222e+000 3.108068e+000 -2.464402e+000 -6.311431e+000 -1.736976e+000 -8.642424e+000 -4.641638e-001 9.865701e-001 5.417137e-001 5.261235e-001 -1.110524e+000 7.071455e+001 4.602423e-004 6.923532e-005 1.244897e-004 6.158851e-005 -4.891987e-004 7.387903e-006 -6.925895e-005 -3.708883e-004 -1.654896e-004 -5.566139e-004 1.930127e-004 -2.453134e-005 -2.923291e-003 7.611246e-006 -2.053565e-005 -4.995970e-005 -3.774019e-006 1.459992e-006 4.002525e-005 1.506312e-005 4.453514e-005 7.492490e-005 9.944455e-005 -3.990707e-005 -4.205932e-005 -1.946305e-005
<VARIANCE> 39
 4.903131e+001 3.175025e+001 4.229786e+001 3.588355e+001 5.316151e+001 4.197985e+001 5.202022e+001 4.888383e+001 4.431925e+001 3.482590e+001 2.981162e+001 2.252664e+001 7.380370e+001 2.708384e+000 1.940945e+000 2.224849e+000 2.220492e+000 3.333106e+000 2.839079e+000 3.365570e+000 2.718922e+000 2.869169e+000 2.577309e+000 1.999080e+000 1.691425e+000 1.796782e+000 4.211677e-001 2.997414e-001 3.533047e-001 3.832753e-001 5.842632e-001 4.934676e-001 6.021670e-001 4.947449e-001 5.121411e-001 4.832777e-001 3.780248e-001 3.224286e-001 2.559147e-001
<GCONST> 1.201926e+002
<STATE> 4
<MEAN> 39
 -2.222441e+000 -2.708222e+000 3.108068e+000 -2.464402e+000 -6.311431e+000 -1.736976e+000 -8.642424e+000 -4.641638e-001 9.865701e-001 5.417137e-001 5.261235e-001 -1.110524e+000 7.071455e+001 4.602423e-004 6.923532e-005 1.244897e-004 6.158851e-005 -4.891987e-004 7.387903e-006 -6.925895e-005 -3.708883e-004 -1.654896e-004 -5.566139e-004 1.930127e-004 -2.453134e-005 -2.923291e-003 7.611246e-006 -2.053565e-005 -4.995970e-005 -3.774019e-006 1.459992e-006 4.002525e-005 1.506312e-005 4.453514e-005 7.492490e-005 9.944455e-005 -3.990707e-005 -4.205932e-005 -1.946305e-005
<VARIANCE> 39
 4.903131e+001 3.175025e+001 4.229786e+001 3.588355e+001 5.316151e+001 4.197985e+001 5.202022e+001 4.888383e+001 4.431925e+001 3.482590e+001 2.981162e+001 2.252664e+001 7.380370e+001 2.708384e+000 1.940945e+000 2.224849e+000 2.220492e+000 3.333106e+000 2.839079e+000 3.365570e+000 2.718922e+000 2.869169e+000 2.577309e+000 1.999080e+000 1.691425e+000 1.796782e+000 4.211677e-001 2.997414e-001 3.533047e-001 3.832753e-001 5.842632e-001 4.934676e-001 6.021670e-001 4.947449e-001 5.121411e-001 4.832777e-001 3.780248e-001 3.224286e-001 2.559147e-001
<GCONST> 1.201926e+002
<TRANSP> 5
 0.000000e+000 1.000000e+000 0.000000e+000 0.000000e+000 0.000000e+000
 0.000000e+000 6.000000e-001 4.000000e-001 0.000000e+000 0.000000e+000
 0.000000e+000 0.000000e+000 6.000000e-001 4.000000e-001 0.000000e+000
 0.000000e+000 0.000000e+000 0.000000e+000 7.000000e-001 3.000000e-001
 0.000000e+000 0.000000e+000 0.000000e+000 0.000000e+000 0.000000e+000
<ENDHMM>
~h "z"
<BEGINHMM>
<NUMSTATES> 5
<STATE> 2
<MEAN> 39
 -2.222441e+000 -2.708222e+000 3.108068e+000 -2.464402e+000 -6.311431e+000 -1.736976e+000 -8.642424e+000 -4.641638e-001 9.865701e-001 5.417137e-001 5.261235e-001 -1.110524e+000 7.071455e+001 4.602423e-004 6.923532e-005 1.244897e-004 6.158851e-005 -4.891987e-004 7.387903e-006 -6.925895e-005 -3.708883e-004 -1.654896e-004 -5.566139e-004 1.930127e-004 -2.453134e-005 -2.923291e-003 7.611246e-006 -2.053565e-005 -4.995970e-005 -3.774019e-006 1.459992e-006 4.002525e-005 1.506312e-005 4.453514e-005 7.492490e-005 9.944455e-005 -3.990707e-005 -4.205932e-005 -1.946305e-005
<VARIANCE> 39
 4.903131e+001 3.175025e+001 4.229786e+001 3.588355e+001 5.316151e+001 4.197985e+001 5.202022e+001 4.888383e+001 4.431925e+001 3.482590e+001 2.981162e+001 2.252664e+001 7.380370e+001 2.708384e+000 1.940945e+000 2.224849e+000 2.220492e+000 3.333106e+000 2.839079e+000 3.365570e+000 2.718922e+000 2.869169e+000 2.577309e+000 1.999080e+000 1.691425e+000 1.796782e+000 4.211677e-001 2.997414e-001 3.533047e-001 3.832753e-001 5.842632e-001 4.934676e-001 6.021670e-001 4.947449e-001 5.121411e-001 4.832777e-001 3.780248e-001 3.224286e-001 2.559147e-001
<GCONST> 1.201926e+002
<STATE> 3
<MEAN> 39
 -2.222441e+000 -2.708222e+000 3.108068e+000 -2.464402e+000 -6.311431e+000 -1.736976e+000 -8.642424e+000 -4.641638e-001 9.865701e-001 5.417137e-001 5.261235e-001 -1.110524e+000 7.071455e+001 4.602423e-004 6.923532e-005 1.244897e-004 6.158851e-005 -4.891987e-004 7.387903e-006 -6.925895e-005 -3.708883e-004 -1.654896e-004 -5.566139e-004 1.930127e-004 -2.453134e-005 -2.923291e-003 7.611246e-006 -2.053565e-005 -4.995970e-005 -3.774019e-006 1.459992e-006 4.002525e-005 1.506312e-005 4.453514e-005 7.492490e-005 9.944455e-005 -3.990707e-005 -4.205932e-005 -1.946305e-005
<VARIANCE> 39
 4.903131e+001 3.175025e+001 4.229786e+001 3.588355e+001 5.316151e+001 4.197985e+001 5.202022e+001 4.888383e+001 4.431925e+001 3.482590e+001 2.981162e+001 2.252664e+001 7.380370e+001 2.708384e+000 1.940945e+000 2.224849e+000 2.220492e+000 3.333106e+000 2.839079e+000 3.365570e+000 2.718922e+000 2.869169e+000 2.577309e+000 1.999080e+000 1.691425e+000 1.796782e+000 4.211677e-001 2.997414e-001 3.533047e-001 3.832753e-001 5.842632e-001 4.934676e-001 6.021670e-001 4.947449e-001 5.121411e-001 4.832777e-001 3.780248e-001 3.224286e-001 2.559147e-001
<GCONST> 1.201926e+002
<STATE> 4
<MEAN> 39
 -2.222441e+000 -2.708222e+000 3.108068e+000 -2.464402e+000 -6.311431e+000 -1.736976e+000 -8.642424e+000 -4.641638e-001 9.865701e-001 5.417137e-001 5.261235e-001 -1.110524e+000 7.071455e+001 4.602423e-004 6.923532e-005 1.244897e-004 6.158851e-005 -4.891987e-004 7.387903e-006 -6.925895e-005 -3.708883e-004 -1.654896e-004 -5.566139e-004 1.930127e-004 -2.453134e-005 -2.923291e-003 7.611246e-006 -2.053565e-005 -4.995970e-005 -3.774019e-006 1.459992e-006 4.002525e-005 1.506312e-005 4.453514e-005 7.492490e-005 9.944455e-005 -3.990707e-005 -4.205932e-005 -1.946305e-005
<VARIANCE> 39
 4.903131e+001 3.175025e+001 4.229786e+001 3.588355e+001 5.316151e+001 4.197985e+001 5.202022e+001 4.888383e+001 4.431925e+001 3.482590e+001 2.981162e+001 2.252664e+001 7.380370e+001 2.708384e+000 1.940945e+000 2.224849e+000 2.220492e+000 3.333106e+000 2.839079e+000 3.365570e+000 2.718922e+000 2.869169e+000 2.577309e+000 1.999080e+000 1.691425e+000 1.796782e+000 4.211677e-001 2.997414e-001 3.533047e-001 3.832753e-001 5.842632e-001 4.934676e-001 6.021670e-001 4.947449e-001 5.121411e-001 4.832777e-001 3.780248e-001 3.224286e-001 2.559147e-001
<GCONST> 1.201926e+002
<TRANSP> 5
 0.000000e+000 1.000000e+000 0.000000e+000 0.000000e+000 0.000000e+000
 0.000000e+000 6.000000e-001 4.000000e-001 0.000000e+000 0.000000e+000
 0.000000e+000 0.000000e+000 6.000000e-001 4.000000e-001 0.000000e+000
 0.000000e+000 0.000000e+000 0.000000e+000 7.000000e-001 3.000000e-001
 0.000000e+000 0.000000e+000 0.000000e+000 0.000000e+000 0.000000e+000
<ENDHMM>
~h "ci"
<BEGINHMM>
<NUMSTATES> 5
<STATE> 2
<MEAN> 39
 -2.222441e+000 -2.708222e+000 3.108068e+000 -2.464402e+000 -6.311431e+000 -1.736976e+000 -8.642424e+000 -4.641638e-001 9.865701e-001 5.417137e-001 5.261235e-001 -1.110524e+000 7.071455e+001 4.602423e-004 6.923532e-005 1.244897e-004 6.158851e-005 -4.891987e-004 7.387903e-006 -6.925895e-005 -3.708883e-004 -1.654896e-004 -5.566139e-004 1.930127e-004 -2.453134e-005 -2.923291e-003 7.611246e-006 -2.053565e-005 -4.995970e-005 -3.774019e-006 1.459992e-006 4.002525e-005 1.506312e-005 4.453514e-005 7.492490e-005 9.944455e-005 -3.990707e-005 -4.205932e-005 -1.946305e-005
<VARIANCE> 39
 4.903131e+001 3.175025e+001 4.229786e+001 3.588355e+001 5.316151e+001 4.197985e+001 5.202022e+001 4.888383e+001 4.431925e+001 3.482590e+001 2.981162e+001 2.252664e+001 7.380370e+001 2.708384e+000 1.940945e+000 2.224849e+000 2.220492e+000 3.333106e+000 2.839079e+000 3.365570e+000 2.718922e+000 2.869169e+000 2.577309e+000 1.999080e+000 1.691425e+000 1.796782e+000 4.211677e-001 2.997414e-001 3.533047e-001 3.832753e-001 5.842632e-001 4.934676e-001 6.021670e-001 4.947449e-001 5.121411e-001 4.832777e-001 3.780248e-001 3.224286e-001 2.559147e-001
<GCONST> 1.201926e+002
<STATE> 3
<MEAN> 39
 -2.222441e+000 -2.708222e+000 3.108068e+000 -2.464402e+000 -6.311431e+000 -1.736976e+000 -8.642424e+000 -4.641638e-001 9.865701e-001 5.417137e-001 5.261235e-001 -1.110524e+000 7.071455e+001 4.602423e-004 6.923532e-005 1.244897e-004 6.158851e-005 -4.891987e-004 7.387903e-006 -6.925895e-005 -3.708883e-004 -1.654896e-004 -5.566139e-004 1.930127e-004 -2.453134e-005 -2.923291e-003 7.611246e-006 -2.053565e-005 -4.995970e-005 -3.774019e-006 1.459992e-006 4.002525e-005 1.506312e-005 4.453514e-005 7.492490e-005 9.944455e-005 -3.990707e-005 -4.205932e-005 -1.946305e-005
<VARIANCE> 39
 4.903131e+001 3.175025e+001 4.229786e+001 3.588355e+001 5.316151e+001 4.197985e+001 5.202022e+001 4.888383e+001 4.431925e+001 3.482590e+001 2.981162e+001 2.252664e+001 7.380370e+001 2.708384e+000 1.940945e+000 2.224849e+000 2.220492e+000 3.333106e+000 2.839079e+000 3.365570e+000 2.718922e+000 2.869169e+000 2.577309e+000 1.999080e+000 1.691425e+000 1.796782e+000 4.211677e-001 2.997414e-001 3.533047e-001 3.832753e-001 5.842632e-001 4.934676e-001 6.021670e-001 4.947449e-001 5.121411e-001 4.832777e-001 3.780248e-001 3.224286e-001 2.559147e-001
<GCONST> 1.201926e+002
<STATE> 4
<MEAN> 39
 -2.222441e+000 -2.708222e+000 3.108068e+000 -2.464402e+000 -6.311431e+000 -1.736976e+000 -8.642424e+000 -4.641638e-001 9.865701e-001 5.417137e-001 5.261235e-001 -1.110524e+000 7.071455e+001 4.602423e-004 6.923532e-005 1.244897e-004 6.158851e-005 -4.891987e-004 7.387903e-006 -6.925895e-005 -3.708883e-004 -1.654896e-004 -5.566139e-004 1.930127e-004 -2.453134e-005 -2.923291e-003 7.611246e-006 -2.053565e-005 -4.995970e-005 -3.774019e-006 1.459992e-006 4.002525e-005 1.506312e-005 4.453514e-005 7.492490e-005 9.944455e-005 -3.990707e-005 -4.205932e-005 -1.946305e-005
<VARIANCE> 39
 4.903131e+001 3.175025e+001 4.229786e+001 3.588355e+001 5.316151e+001 4.197985e+001 5.202022e+001 4.888383e+001 4.431925e+001 3.482590e+001 2.981162e+001 2.252664e+001 7.380370e+001 2.708384e+000 1.940945e+000 2.224849e+000 2.220492e+000 3.333106e+000 2.839079e+000 3.365570e+000 2.718922e+000 2.869169e+000 2.577309e+000 1.999080e+000 1.691425e+000 1.796782e+000 4.211677e-001 2.997414e-001 3.533047e-001 3.832753e-001 5.842632e-001 4.934676e-001 6.021670e-001 4.947449e-001 5.121411e-001 4.832777e-001 3.780248e-001 3.224286e-001 2.559147e-001
<GCONST> 1.201926e+002
<TRANSP> 5
 0.000000e+000 1.000000e+000 0.000000e+000 0.000000e+000 0.000000e+000
 0.000000e+000 6.000000e-001 4.000000e-001 0.000000e+000 0.000000e+000
 0.000000e+000 0.000000e+000 6.000000e-001 4.000000e-001 0.000000e+000
 0.000000e+000 0.000000e+000 0.000000e+000 7.000000e-001 3.000000e-001
 0.000000e+000 0.000000e+000 0.000000e+000 0.000000e+000 0.000000e+000
<ENDHMM>
~h "cz"
<BEGINHMM>
<NUMSTATES> 5
<STATE> 2
<MEAN> 39
 -2.222441e+000 -2.708222e+000 3.108068e+000 -2.464402e+000 -6.311431e+000 -1.736976e+000 -8.642424e+000 -4.641638e-001 9.865701e-001 5.417137e-001 5.261235e-001 -1.110524e+000 7.071455e+001 4.602423e-004 6.923532e-005 1.244897e-004 6.158851e-005 -4.891987e-004 7.387903e-006 -6.925895e-005 -3.708883e-004 -1.654896e-004 -5.566139e-004 1.930127e-004 -2.453134e-005 -2.923291e-003 7.611246e-006 -2.053565e-005 -4.995970e-005 -3.774019e-006 1.459992e-006 4.002525e-005 1.506312e-005 4.453514e-005 7.492490e-005 9.944455e-005 -3.990707e-005 -4.205932e-005 -1.946305e-005
<VARIANCE> 39
 4.903131e+001 3.175025e+001 4.229786e+001 3.588355e+001 5.316151e+001 4.197985e+001 5.202022e+001 4.888383e+001 4.431925e+001 3.482590e+001 2.981162e+001 2.252664e+001 7.380370e+001 2.708384e+000 1.940945e+000 2.224849e+000 2.220492e+000 3.333106e+000 2.839079e+000 3.365570e+000 2.718922e+000 2.869169e+000 2.577309e+000 1.999080e+000 1.691425e+000 1.796782e+000 4.211677e-001 2.997414e-001 3.533047e-001 3.832753e-001 5.842632e-001 4.934676e-001 6.021670e-001 4.947449e-001 5.121411e-001 4.832777e-001 3.780248e-001 3.224286e-001 2.559147e-001
<GCONST> 1.201926e+002
<STATE> 3
<MEAN> 39
 -2.222441e+000 -2.708222e+000 3.108068e+000 -2.464402e+000 -6.311431e+000 -1.736976e+000 -8.642424e+000 -4.641638e-001 9.865701e-001 5.417137e-001 5.261235e-001 -1.110524e+000 7.071455e+001 4.602423e-004 6.923532e-005 1.244897e-004 6.158851e-005 -4.891987e-004 7.387903e-006 -6.925895e-005 -3.708883e-004 -1.654896e-004 -5.566139e-004 1.930127e-004 -2.453134e-005 -2.923291e-003 7.611246e-006 -2.053565e-005 -4.995970e-005 -3.774019e-006 1.459992e-006 4.002525e-005 1.506312e-005 4.453514e-005 7.492490e-005 9.944455e-005 -3.990707e-005 -4.205932e-005 -1.946305e-005
<VARIANCE> 39
 4.903131e+001 3.175025e+001 4.229786e+001 3.588355e+001 5.316151e+001 4.197985e+001 5.202022e+001 4.888383e+001 4.431925e+001 3.482590e+001 2.981162e+001 2.252664e+001 7.380370e+001 2.708384e+000 1.940945e+000 2.224849e+000 2.220492e+000 3.333106e+000 2.839079e+000 3.365570e+000 2.718922e+000 2.869169e+000 2.577309e+000 1.999080e+000 1.691425e+000 1.796782e+000 4.211677e-001 2.997414e-001 3.533047e-001 3.832753e-001 5.842632e-001 4.934676e-001 6.021670e-001 4.947449e-001 5.121411e-001 4.832777e-001 3.780248e-001 3.224286e-001 2.559147e-001
<GCONST> 1.201926e+002
<STATE> 4
<MEAN> 39
 -2.222441e+000 -2.708222e+000 3.108068e+000 -2.464402e+000 -6.311431e+000 -1.736976e+000 -8.642424e+000 -4.641638e-001 9.865701e-001 5.417137e-001 5.261235e-001 -1.110524e+000 7.071455e+001 4.602423e-004 6.923532e-005 1.244897e-004 6.158851e-005 -4.891987e-004 7.387903e-006 -6.925895e-005 -3.708883e-004 -1.654896e-004 -5.566139e-004 1.930127e-004 -2.453134e-005 -2.923291e-003 7.611246e-006 -2.053565e-005 -4.995970e-005 -3.774019e-006 1.459992e-006 4.002525e-005 1.506312e-005 4.453514e-005 7.492490e-005 9.944455e-005 -3.990707e-005 -4.205932e-005 -1.946305e-005
<VARIANCE> 39
 4.903131e+001 3.175025e+001 4.229786e+001 3.588355e+001 5.316151e+001 4.197985e+001 5.202022e+001 4.888383e+001 4.431925e+001 3.482590e+001 2.981162e+001 2.252664e+001 7.380370e+001 2.708384e+000 1.940945e+000 2.224849e+000 2.220492e+000 3.333106e+000 2.839079e+000 3.365570e+000 2.718922e+000 2.869169e+000 2.577309e+000 1.999080e+000 1.691425e+000 1.796782e+000 4.211677e-001 2.997414e-001 3.533047e-001 3.832753e-001 5.842632e-001 4.934676e-001 6.021670e-001 4.947449e-001 5.121411e-001 4.832777e-001 3.780248e-001 3.224286e-001 2.559147e-001
<GCONST> 1.201926e+002
<TRANSP> 5
 0.000000e+000 1.000000e+000 0.000000e+000 0.000000e+000 0.000000e+000
 0.000000e+000 6.000000e-001 4.000000e-001 0.000000e+000 0.000000e+000
 0.000000e+000 0.000000e+000 6.000000e-001 4.000000e-001 0.000000e+000
 0.000000e+000 0.000000e+000 0.000000e+000 7.000000e-001 3.000000e-001
 0.000000e+000 0.000000e+000 0.000000e+000 0.000000e+000 0.000000e+000
<ENDHMM>
~h "dz"
<BEGINHMM>
<NUMSTATES> 5
<STATE> 2
<MEAN> 39
 -2.222441e+000 -2.708222e+000 3.108068e+000 -2.464402e+000 -6.311431e+000 -1.736976e+000 -8.642424e+000 -4.641638e-001 9.865701e-001 5.417137e-001 5.261235e-001 -1.110524e+000 7.071455e+001 4.602423e-004 6.923532e-005 1.244897e-004 6.158851e-005 -4.891987e-004 7.387903e-006 -6.925895e-005 -3.708883e-004 -1.654896e-004 -5.566139e-004 1.930127e-004 -2.453134e-005 -2.923291e-003 7.611246e-006 -2.053565e-005 -4.995970e-005 -3.774019e-006 1.459992e-006 4.002525e-005 1.506312e-005 4.453514e-005 7.492490e-005 9.944455e-005 -3.990707e-005 -4.205932e-005 -1.946305e-005
<VARIANCE> 39
 4.903131e+001 3.175025e+001 4.229786e+001 3.588355e+001 5.316151e+001 4.197985e+001 5.202022e+001 4.888383e+001 4.431925e+001 3.482590e+001 2.981162e+001 2.252664e+001 7.380370e+001 2.708384e+000 1.940945e+000 2.224849e+000 2.220492e+000 3.333106e+000 2.839079e+000 3.365570e+000 2.718922e+000 2.869169e+000 2.577309e+000 1.999080e+000 1.691425e+000 1.796782e+000 4.211677e-001 2.997414e-001 3.533047e-001 3.832753e-001 5.842632e-001 4.934676e-001 6.021670e-001 4.947449e-001 5.121411e-001 4.832777e-001 3.780248e-001 3.224286e-001 2.559147e-001
<GCONST> 1.201926e+002
<STATE> 3
<MEAN> 39
 -2.222441e+000 -2.708222e+000 3.108068e+000 -2.464402e+000 -6.311431e+000 -1.736976e+000 -8.642424e+000 -4.641638e-001 9.865701e-001 5.417137e-001 5.261235e-001 -1.110524e+000 7.071455e+001 4.602423e-004 6.923532e-005 1.244897e-004 6.158851e-005 -4.891987e-004 7.387903e-006 -6.925895e-005 -3.708883e-004 -1.654896e-004 -5.566139e-004 1.930127e-004 -2.453134e-005 -2.923291e-003 7.611246e-006 -2.053565e-005 -4.995970e-005 -3.774019e-006 1.459992e-006 4.002525e-005 1.506312e-005 4.453514e-005 7.492490e-005 9.944455e-005 -3.990707e-005 -4.205932e-005 -1.946305e-005
<VARIANCE> 39
